#ifndef WEIGHTS_H
#define WEIGHTS_H

#define INPUT_HEIGHT 28
#define INPUT_WIDTH 28
#define CONV_FILTERS 4
#define CONV_KERNEL 3
#define POOL_SIZE 2
#define FLATTEN_SIZE 676
#define OUTPUT_SIZE 10

float conv_weights[CONV_KERNEL][CONV_KERNEL][1][CONV_FILTERS] = {
  {
    {{0.43099123, 0.62473267, 0.56808197, 0.61801845}},
    {{0.07278351, 0.62359160, 0.60243106, 0.70317590}},
    {{0.29363927, 0.24836212, 0.83901531, -0.63076323}}
  },
  {
    {{-0.03911500, -0.20703764, 0.23112279, 0.54507345}},
    {{0.73768055, 0.48189908, 0.63293755, 0.70567822}},
    {{0.10928943, 0.46432909, 0.31149852, -1.35554147}}
  },
  {
    {{0.22179872, -1.12510538, -1.57374358, 0.81888556}},
    {{0.51229125, -0.63322181, -1.25184631, -0.27528498}},
    {{0.09317693, 0.50049978, -1.65855074, -1.35689092}}
  }
};

float conv_bias[CONV_FILTERS] = {-0.20946632, -0.37516645, 0.18301563, -0.02155893};

float dense_weights[FLATTEN_SIZE][OUTPUT_SIZE] = {
  {-0.00239495, 0.18509901, 0.03766703, 0.03278491, -0.05305886, -0.00249452, -0.03336290, 0.10399392, -0.06075248, 0.06765063},
  {-0.08494712, 0.11414008, -0.04690576, -0.09521458, 0.10716154, -0.03460545, 0.10253616, 0.02518971, -0.03361316, -0.01128534},
  {0.01738476, 0.42537394, -0.13809478, -0.14708234, 0.07426660, 0.18637821, -0.07230797, 0.16106133, -0.26355472, -0.06985129},
  {-0.08082413, 0.13481483, -0.04265459, 0.06105024, -0.05072638, -0.05342109, 0.07614048, 0.03539824, -0.06444409, -0.01027785},
  {-0.02721044, 0.00361760, -0.25339144, -0.09475228, -0.23383872, 0.10879879, 0.16905737, -0.12551145, -0.14138307, 0.06325094},
  {-0.13162810, 0.00108615, -0.13430990, 0.11167561, -0.00421291, -0.10553292, 0.12254521, 0.00436010, -0.00627983, -0.04454822},
  {-0.00893342, 0.37720272, -0.07493966, -0.12675704, 0.06603659, 0.18292952, -0.07945453, 0.12202151, -0.40621579, -0.02294197},
  {0.16468948, 0.12139831, -0.10673083, -0.07024860, -0.06242157, -0.07041515, -0.17319047, 0.06616975, 0.00319971, -0.02772520},
  {-0.15583031, -0.18644273, -0.00320114, 0.11804460, -0.28029332, -0.05771522, 0.22718431, -0.17206480, -0.20494242, -0.04399901},
  {-0.09626796, -0.08494950, 0.07205619, 0.06659391, -0.30010137, -0.02578705, 0.15099593, -0.03437781, -0.20074154, -0.11060490},
  {0.11009095, 0.34129512, -0.11085671, -0.09555065, -0.02217714, 0.07625940, -0.07573636, 0.18313031, -0.27937710, -0.03744557},
  {-0.08174283, 0.01870353, -0.14377338, 0.04401050, -0.24598196, 0.10843626, -0.07883273, 0.04529395, -0.09090445, -0.00821264},
  {-0.15074840, -0.32766679, 0.04754742, 0.12390454, -0.31641486, -0.21475102, 0.30233362, -0.31751597, -0.14202544, -0.23670381},
  {-0.09685887, -0.28335142, 0.30963245, -0.04316695, -0.41006303, -0.28269047, 0.14269795, -0.22907133, -0.17402539, -0.17026088},
  {0.06486326, 0.35437942, -0.15533859, -0.20181961, 0.01740239, 0.04112009, 0.02064680, 0.16818176, -0.24332422, -0.03271054},
  {0.02592739, -0.05641408, -0.06028790, 0.03307706, -0.32196352, -0.24736385, 0.27506354, -0.17829072, -0.15640587, -0.08534124},
  {-0.01403678, -0.43278125, 0.23594069, -0.05325699, -0.49248469, -0.16653219, 0.09474381, -0.40015700, -0.06047629, -0.31329024},
  {-0.36009875, -0.30945006, 0.32773393, -0.00209535, -0.43871751, -0.22364645, 0.08845811, -0.24379380, -0.27350000, -0.15563631},
  {0.01353948, 0.35589415, -0.06878206, -0.15017040, 0.11784815, 0.15160058, -0.06857539, 0.12371321, -0.36391899, -0.01929693},
  {-0.27311108, -0.00288094, -0.02022391, -0.03749268, -0.42809698, -0.11540528, 0.25112942, -0.30556971, -0.49542934, -0.13321462},
  {-0.10865969, -0.23496546, 0.20478320, -0.05847159, -0.62759078, -0.05027087, 0.07977434, -0.51664931, -0.13473418, -0.62775058},
  {-0.14967649, 0.18257345, 0.06853981, -0.13520178, -0.29863715, -0.13677627, 0.04964337, -0.10634599, -0.37929168, -0.21219359},
  {0.18821943, 0.42660081, -0.10718936, -0.11251169, 0.13975959, 0.15679187, -0.13466339, 0.06406166, -0.30535308, -0.13948749},
  {-0.10847393, -0.30069381, 0.21837373, -0.24144308, -0.49016476, -0.19373336, 0.27208742, -0.52516979, -0.12031046, -0.43978480},
  {-0.22190668, -0.00667968, 0.17564376, -0.11585045, -0.43274683, -0.13440797, 0.29173037, -0.45353985, -0.14258294, -0.66180241},
  {0.02296001, 0.15960357, -0.04660850, 0.07246790, -0.19977681, -0.11540037, 0.07774609, -0.24519999, -0.23790100, -0.37616152},
  {0.16256714, 0.30563757, -0.00795660, -0.07954524, 0.06191476, 0.04729419, -0.07826798, 0.15640652, -0.23093089, -0.02819018},
  {-0.12252739, 0.12511447, -0.23763476, -0.19257507, -0.35942569, -0.06033081, 0.31948200, -0.51074505, -0.15494503, -0.57809067},
  {-0.29264092, 0.14169075, 0.07995712, 0.10397943, -0.39312425, -0.02437085, 0.16053939, -0.37675449, -0.13992688, -0.59340483},
  {0.12778901, -0.21140197, 0.31191096, -0.16608956, -0.39320275, 0.04959616, -0.06160032, -0.25596952, -0.24703459, -0.33333567},
  {0.26962784, 0.26108152, -0.06343772, -0.16643068, -0.03387065, 0.07600106, -0.14656557, 0.21175401, -0.32337695, -0.08609653},
  {-0.11930603, 0.09698248, -0.13346542, -0.12968464, -0.15593037, -0.00196071, 0.30779490, -0.31171069, -0.12444164, -0.49442244},
  {-0.31579912, -0.14308415, 0.07970677, 0.02344164, -0.47216716, 0.07468320, 0.02358496, -0.27843174, -0.19828014, -0.39856339},
  {0.00485546, -0.02489916, -0.07328109, -0.37456614, -0.33439121, -0.17449725, 0.35099405, -0.13259658, -0.03332437, -0.23149124},
  {0.16024993, 0.40625158, -0.06146237, -0.19571748, 0.05760995, 0.08191283, 0.05940844, 0.09276505, -0.37134859, -0.14580615},
  {-0.04832892, 0.11848494, -0.05858330, -0.12985912, -0.37161070, 0.01987877, 0.11408210, -0.48794892, -0.05508845, -0.36195698},
  {-0.27221668, -0.10130217, -0.23419972, 0.06009200, -0.18180019, 0.07509758, 0.25990814, -0.24226710, -0.21861355, -0.47963673},
  {-0.07423050, -0.12351394, -0.29251021, -0.31540763, -0.17224580, -0.22393905, 0.42037100, -0.07844430, -0.11021449, -0.20549296},
  {0.10528579, 0.41214603, -0.03275400, -0.19793302, 0.06270139, 0.03445956, -0.10519930, 0.16905814, -0.25943324, -0.14773083},
  {-0.30515587, -0.14686653, -0.18466467, -0.14988825, -0.31249094, 0.06286014, 0.29171354, -0.41206118, -0.00922641, -0.43158215},
  {-0.25406694, -0.37693098, -0.29279190, -0.06192289, -0.09134471, -0.03119230, 0.30449113, -0.30285072, 0.14053845, -0.39480579},
  {-0.16385902, -0.03517719, -0.04492940, -0.19000120, -0.12915750, -0.09764966, 0.29837188, 0.04601340, -0.04661908, -0.05097407},
  {0.01551600, 0.34354639, -0.05020183, -0.16925551, 0.13454005, 0.17341557, -0.01381745, 0.22546157, -0.30771831, -0.00738037},
  {-0.11359795, -0.28213429, -0.35536385, 0.10343459, -0.10054746, 0.11070026, 0.18839541, -0.24767530, -0.16068040, -0.48057663},
  {-0.29489684, -0.41307423, -0.08071892, -0.43444952, -0.31065261, -0.19510533, 0.26162139, -0.10468309, 0.10343439, -0.21494161},
  {-0.14051060, 0.00459654, -0.00734045, -0.10616568, -0.06570571, 0.06236452, 0.02372078, 0.12924758, -0.14275493, -0.09045430},
  {0.06364736, 0.41558143, -0.11677039, -0.23666191, 0.04640620, 0.03778502, 0.05736903, 0.19110142, -0.37844440, 0.00607110},
  {-0.18576135, -0.24011175, 0.02082643, -0.48737448, -0.27538148, -0.06129065, 0.33359006, -0.04294869, 0.09766545, -0.21683390},
  {-0.02737178, -0.17531548, -0.04275566, -0.24996278, -0.23316404, -0.21100980, 0.09349857, 0.02247703, -0.04494210, 0.08659672},
  {-0.05743905, 0.09443004, 0.02884485, -0.06484435, 0.03057636, -0.03165604, 0.00929949, 0.07305453, -0.03419073, -0.06868432},
  {0.04441902, 0.32891852, -0.01258576, -0.20057492, 0.09922332, 0.05743450, -0.03945622, 0.18799506, -0.24912018, -0.02195531},
  {-0.12924235, -0.25853759, -0.00454386, -0.14918077, -0.23868503, -0.25229871, 0.07703798, 0.10796133, -0.03729020, 0.05196415},
  {-0.05111270, 0.18622337, -0.12569806, -0.02173575, 0.04586338, -0.17188802, -0.10431997, -0.02032290, -0.11076098, -0.00442516},
  {0.06608672, 0.23819166, -0.05073768, 0.11747902, 0.02382295, 0.00611986, -0.19649297, 0.08577552, 0.00514880, -0.06966394},
  {0.11053768, 0.32302400, -0.14276196, -0.22733395, 0.11607898, 0.04378621, 0.00325250, 0.12046538, -0.33853024, -0.05414093},
  {-0.07166611, 0.14196627, 0.02386624, -0.08761644, -0.02294353, -0.00796429, -0.13311478, 0.00076612, -0.09117415, 0.06149495},
  {-0.22785480, 0.26203087, -0.04953309, 0.07628416, 0.01438618, -0.19141121, 0.20260035, -0.02895553, -0.18782809, -0.05304910},
  {-0.30288729, 0.21204254, -0.04851479, 0.16956119, -0.03782356, -0.18351534, 0.00759416, 0.00308071, -0.28945890, -0.06033161},
  {0.15753280, 0.45570275, 0.01863319, -0.22720775, 0.07997212, 0.03632348, -0.02053501, 0.12021048, -0.27674925, -0.14472049},
  {-0.04128999, 0.17844513, -0.18018517, 0.04395869, -0.21404079, 0.14666773, -0.07537001, -0.07290819, -0.15048365, -0.13050982},
  {-0.20848200, 0.11197387, -0.01016218, 0.07303745, -0.21200079, -0.15416273, 0.02433665, -0.00167341, -0.16686977, -0.43571344},
  {-0.15232928, -0.15540022, 0.00243044, 0.12572481, -0.12436759, -0.40262353, 0.08005767, -0.32678300, 0.06210079, -0.34824911},
  {0.07272004, 0.42301494, -0.03364953, -0.17440175, 0.04889508, 0.09722077, -0.02598493, 0.17964484, -0.35708502, -0.04503891},
  {-0.38953221, 0.15455338, -0.03581502, 0.02545004, -0.11244453, -0.07088926, 0.31284603, -0.19979289, -0.29602054, -0.16484411},
  {0.06808794, -0.21621713, -0.01815924, -0.00049237, -0.19132067, -0.05352805, 0.09850477, 0.00958364, -0.03148268, -0.22092937},
  {0.10649986, -0.00277915, 0.08707421, 0.09441968, -0.31958559, -0.17143323, 0.13641699, -0.37358668, -0.27168524, -0.22250645},
  {0.16891851, 0.25589618, 0.10106235, -0.18865240, 0.06918547, 0.12940644, -0.22095700, 0.10595603, -0.44412115, -0.05665444},
  {-0.13696374, 0.22305490, -0.26366633, 0.13312075, -0.15122028, -0.31591648, 0.28688771, -0.07207368, -0.08097267, -0.49276310},
  {-0.09394333, -0.06421417, 0.11914641, -0.05080545, -0.29312333, 0.19564296, 0.16028756, -0.28422549, -0.09763707, 0.17646246},
  {-0.09224923, 0.07358260, 0.32572526, 0.15695578, -0.17381600, 0.08525273, -0.09948489, -0.20951025, -0.24117661, -0.08297100},
  {0.06959661, 0.16617469, 0.02413348, -0.11268954, 0.07498984, -0.08175027, -0.24575265, 0.21548241, -0.19492547, -0.04456808},
  {-0.27496064, 0.22725230, -0.10970514, -0.22894670, -0.03477020, -0.17527767, 0.43194932, 0.01732579, -0.15873837, -0.92762566},
  {-0.03719777, -0.05284212, 0.19381334, -0.02313560, -0.42218712, 0.00842416, -0.00562779, -0.25541100, -0.09832127, 0.11939586},
  {-0.04307409, 0.16710280, 0.17547178, 0.18755917, -0.11932986, -0.24609424, -0.09646395, -0.20152618, -0.03378411, -0.73904145},
  {-0.00645338, -0.09561182, 0.31734291, 0.07872114, -0.10070401, -0.14481448, -0.16938618, 0.10979706, -0.14754429, -0.14538500},
  {-0.02422135, 0.37384427, -0.08507770, 0.07049767, -0.08724258, -0.35832983, 0.26457295, -0.27301922, -0.01592941, -0.41591892},
  {-0.08089445, 0.08603086, 0.11702070, 0.03162340, -0.06678662, -0.04365532, 0.03711355, -0.20274962, -0.06109146, -0.09034421},
  {-0.05162057, -0.09133258, 0.19634694, 0.36501926, -0.00242344, -0.19215772, -0.17444760, -0.61762118, -0.01678858, -0.74145317},
  {-0.06854726, -0.36350003, 0.29592556, 0.21010691, -0.24497986, -0.08468378, -0.23947230, 0.12993787, -0.10790534, -0.08595064},
  {-0.01252681, 0.29618061, -0.16637325, 0.00845785, 0.03341351, -0.39364573, 0.19428490, -0.33191517, -0.03886691, -0.35011330},
  {-0.06595618, 0.14481059, 0.01407949, 0.07673410, -0.14228170, -0.01369458, 0.01756785, -0.09894123, -0.04618780, -0.36545578},
  {-0.02906412, -0.22482045, 0.29328343, 0.21222545, -0.34978238, -0.19310163, -0.27831620, -0.55265051, -0.03540713, -0.80222088},
  {0.11190588, -0.03485291, 0.00364308, -0.05751529, -0.10484938, 0.02779365, -0.09317321, 0.10207342, -0.22839613, -0.02077427},
  {-0.10479133, 0.29982460, -0.27108654, -0.24586804, 0.20990366, 0.13508585, 0.27607241, -0.11443315, 0.06127189, -0.52813929},
  {-0.09000897, 0.10927289, 0.01526330, 0.13686755, -0.07822990, 0.12625404, 0.05704352, -0.15477931, -0.08478341, -0.30277246},
  {0.15859413, 0.00861076, 0.03531022, 0.10158861, 0.00811128, -0.16325110, -0.33144370, -0.59105039, 0.08737072, -0.53704077},
  {0.19644473, 0.12874439, -0.12388050, -0.22416236, -0.14672410, 0.07317521, -0.04463681, 0.21857320, -0.12335268, -0.00587581},
  {-0.30284905, 0.15045334, -0.22474486, -0.23252478, 0.10031453, 0.16837820, 0.17840013, -0.21940626, 0.01173620, -0.42833886},
  {-0.07229850, 0.14111903, -0.02544331, 0.10721356, 0.04608860, 0.02684793, 0.23366462, -0.42588085, -0.07248069, -0.07771509},
  {-0.05757629, -0.14534767, -0.07667362, 0.00630423, 0.02818605, 0.02101097, -0.12952800, -0.16537863, 0.18128210, -0.41255084},
  {0.03401346, 0.17389597, -0.13048878, -0.47778070, -0.13408673, 0.24790624, -0.01990284, 0.11192333, -0.16296081, -0.03159437},
  {-0.15835686, 0.12173336, -0.25525865, -0.18495949, 0.12255587, 0.25876841, 0.18381447, -0.16051082, -0.09077913, -0.24444894},
  {-0.12690580, 0.14796174, -0.11433660, 0.06582456, 0.15672164, -0.11828484, 0.20316620, -0.28612524, -0.00291362, -0.23455723},
  {-0.28224888, -0.29532853, -0.12572140, -0.27411500, 0.05412321, 0.16169153, 0.09923556, -0.18713591, 0.10606723, -0.29005706},
  {0.06742695, 0.23686491, -0.08223654, -0.25916553, -0.06308572, 0.11003834, 0.15907559, 0.14381045, -0.22603425, -0.00995849},
  {-0.18576595, 0.24490279, -0.25290555, -0.06363149, 0.05538335, 0.05593843, 0.03883211, -0.41228712, -0.03157609, -0.00593712},
  {-0.11610436, 0.07455351, -0.07354645, -0.15719521, 0.19109417, 0.04283978, 0.11469242, -0.71265024, -0.28010750, -0.64019805},
  {-0.19136116, -0.27831325, -0.14234316, -0.37575328, -0.15140270, -0.16937633, -0.03634831, -0.18722846, 0.15636426, -0.27709633},
  {0.01736400, 0.30664754, -0.00809407, -0.24680686, -0.07668817, 0.15277524, -0.02379878, 0.20760675, -0.28432903, -0.04980923},
  {-0.12399895, -0.10426880, -0.08752457, -0.02875759, 0.13284117, 0.04471895, 0.11677393, -0.35531819, -0.11706368, -0.68523389},
  {-0.26638892, -0.23895442, -0.21051462, -0.30687487, 0.01900702, -0.05599487, 0.12176906, -0.24159621, 0.05225046, -0.38671139},
  {-0.00789236, -0.07015169, -0.04318701, -0.14063044, -0.08884946, -0.14106067, -0.07183234, 0.04586290, 0.00746471, -0.03149397},
  {0.03810273, 0.32174507, -0.09703402, -0.16504635, 0.14452495, 0.09750221, -0.04473450, 0.24059562, -0.23615527, 0.00637793},
  {-0.28998497, -0.02303129, -0.22076482, -0.18903899, 0.03134617, 0.00495858, 0.03624129, -0.58625227, 0.04115414, -0.64868903},
  {-0.12888241, -0.20497045, -0.11441129, -0.06053066, -0.09083319, -0.08292843, -0.09684476, 0.26240373, -0.30305767, -0.25135815},
  {-0.00036317, -0.11237492, 0.16878776, 0.02765163, -0.05900998, -0.36260891, -0.18297324, 0.11012247, -0.15047325, -0.08043665},
  {-0.02373314, 0.31923506, -0.05323372, -0.21187930, 0.01582829, 0.11906357, -0.06820907, 0.15441181, -0.23504035, -0.00449887},
  {-0.04589593, 0.10079349, -0.09126842, 0.08656014, -0.04941539, -0.07089403, 0.01416464, 0.17713048, -0.17717029, -0.16288307},
  {-0.27367991, 0.21635570, 0.01453070, 0.14828444, -0.04301921, -0.37888357, 0.03533676, -0.06805706, -0.19828567, -0.50372618},
  {-0.22049119, 0.05010076, -0.20074065, 0.02982293, 0.02727064, 0.02630406, 0.00096712, 0.05025440, -0.35443920, -0.48638836},
  {-0.01679114, 0.50101840, -0.08502669, 0.02319131, 0.02952349, 0.04191514, 0.02546924, 0.16466986, -0.30050871, -0.11958613},
  {-0.22527362, 0.19942637, -0.04385872, -0.09297925, -0.18661384, -0.04095744, -0.13061781, 0.27656910, -0.23548807, -0.16399598},
  {-0.01714798, 0.00561766, -0.08652326, 0.00857246, 0.06852186, 0.02988354, -0.06562232, -0.06780798, -0.05320463, -0.17544004},
  {-0.04311824, 0.11362110, -0.06451784, 0.03286126, -0.02834594, -0.17293525, -0.04530783, 0.25811967, -0.16376670, -0.34904796},
  {-0.00008279, 0.34487370, 0.06365510, 0.15461273, -0.08524391, -0.34216136, -0.19857389, 0.18399122, -0.37899914, -0.17056803},
  {-0.34066737, -0.01100801, -0.09887564, 0.00584332, 0.05560601, -0.18896651, 0.19919804, -0.01851453, -0.21392936, -0.78817666},
  {0.00403599, -0.23626035, -0.08432315, -0.06434990, -0.06392149, 0.03178191, 0.00556850, 0.00149877, 0.00746490, 0.13588503},
  {-0.04854748, -0.06953116, 0.00621352, 0.08252570, 0.09692272, -0.03153028, -0.06134464, 0.37260312, -0.18868499, -0.57148832},
  {-0.09050456, 0.12530766, 0.17881313, 0.13709949, -0.14015803, -0.49270624, -0.27946085, 0.38806522, -0.27906758, -0.22039086},
  {-0.14454201, -0.05002969, -0.19227313, -0.20325284, 0.22141439, -0.00276876, 0.11784330, 0.35641614, 0.19217066, -0.96241593},
  {0.05811127, -0.11198892, 0.08492698, 0.04992459, -0.13288134, 0.13881643, -0.00958151, 0.13195059, 0.00654430, 0.05987394},
  {-0.00622678, 0.00062177, 0.12632564, 0.05081570, 0.00507722, 0.10669345, -0.28740826, 0.45126387, -0.09571060, -0.39391366},
  {-0.33801630, -0.10883758, 0.24282940, 0.36289653, -0.16150990, -0.23116146, -0.30533510, 0.19556439, -0.11419327, -0.18444780},
  {-0.13413857, -0.14441656, -0.20252520, -0.21279548, 0.39840481, 0.14376789, 0.17290206, 0.13181666, 0.13218848, -0.62123090},
  {0.02167575, -0.12058657, 0.11877348, 0.08945765, -0.10072774, -0.00299299, -0.17880772, 0.03263152, -0.05823201, -0.03343856},
  {-0.10569755, -0.12749954, 0.11995825, 0.05073395, 0.10186165, 0.00224307, -0.49682790, 0.25433803, 0.06769663, -0.08874484},
  {-0.35497248, -0.38675523, 0.03826367, 0.31368211, -0.49021319, -0.11359147, -0.43898237, 0.30709139, 0.16035262, 0.18851765},
  {-0.10285627, 0.13833253, -0.12643397, -0.29606605, 0.36284858, 0.03553185, 0.17812076, -0.20551524, -0.12027141, -0.12804542},
  {-0.12168673, 0.06405997, 0.09038746, 0.02201480, -0.23209217, -0.07244121, -0.00834032, -0.14063011, -0.05290513, -0.00098108},
  {0.01382589, -0.19897945, 0.23052706, 0.17141166, 0.04716444, -0.20862727, -0.43729019, 0.05652954, 0.03098298, 0.08057987},
  {-0.14557080, -0.53290921, -0.01711689, 0.07392866, -0.77893817, -0.03288902, -0.22471331, 0.29893190, 0.16029799, 0.31063709},
  {-0.16812353, 0.35378635, -0.08881216, -0.21836770, 0.41459760, -0.07402570, 0.03715059, -0.32593393, 0.01724735, -0.10518201},
  {-0.07360137, -0.02366018, 0.01626591, 0.11252683, 0.03925326, 0.04750558, 0.02110865, -0.20317441, -0.04321319, 0.09951471},
  {0.06380488, -0.22889790, 0.16376507, 0.25952339, -0.25536513, -0.18025360, -0.25186691, -0.03426652, 0.18077189, 0.02863938},
  {-0.02084267, -0.50940341, 0.04234657, -0.07501087, -0.69913286, 0.20421897, -0.14704458, 0.20360038, 0.08653594, 0.31425261},
  {-0.04897477, 0.27554157, -0.19401975, -0.06206049, 0.53588486, -0.02963007, 0.02793531, -0.25791359, -0.01949551, -0.28452626},
  {0.04147159, 0.08759573, -0.02748472, 0.02888068, 0.13207719, -0.11412874, -0.05495642, -0.12379001, -0.01761481, -0.10014757},
  {0.12090828, -0.54699016, 0.36499676, 0.15388484, -0.23885787, -0.18062916, -0.19087815, -0.13791339, 0.18536144, 0.10915823},
  {-0.13575600, -0.49366343, 0.02062340, -0.21691965, -0.55948085, 0.18265277, -0.02287298, 0.05273522, 0.02801833, 0.26044327},
  {-0.19267625, 0.12597658, -0.14258814, -0.11930519, 0.41014266, 0.09189203, 0.00502212, -0.13503188, -0.03611230, -0.28181916},
  {-0.03350585, 0.08201273, -0.06582717, 0.13833612, 0.15317129, -0.10203822, 0.07396224, -0.06225552, 0.05414436, -0.09805680},
  {0.10302911, -0.39621976, 0.18619369, 0.10662956, -0.16873547, -0.34798780, 0.01146637, -0.50738597, 0.11684964, 0.14940788},
  {-0.04568237, -0.25585908, -0.15053940, -0.34964022, -0.16228741, 0.33715931, 0.02449037, 0.06162304, 0.02087453, -0.02594380},
  {-0.19739880, 0.29380038, -0.11483581, -0.03974340, 0.36173654, 0.15703227, -0.03086561, -0.20780949, 0.02436266, -0.25370046},
  {-0.11741667, 0.02516007, 0.07405993, 0.00554665, 0.17823780, -0.04950194, 0.00859897, -0.19626980, -0.07674920, -0.11108138},
  {0.07060468, -0.22117713, 0.13479358, 0.01746559, -0.09350522, -0.15873320, 0.01703483, -0.34701389, 0.23432121, -0.22651276},
  {-0.10768154, -0.04776710, -0.51012897, -0.43148005, 0.11949419, 0.51050621, 0.05515944, 0.06992903, 0.08924230, -0.22410369},
  {-0.14074022, 0.14954929, -0.09237552, -0.10344626, 0.21876144, -0.02692341, 0.04384754, -0.20530407, -0.05100871, -0.19282570},
  {-0.04494400, 0.04417590, 0.03450068, -0.00324049, 0.22962849, -0.00966830, 0.07215218, -0.27618384, -0.09464753, -0.18380497},
  {-0.24728493, -0.19491644, -0.32602936, -0.09347915, 0.04956888, 0.14164847, 0.10868787, -0.57940215, 0.11923859, -0.70442975},
  {-0.19678670, -0.00876447, -0.27387139, -0.27088293, 0.09723636, 0.39367253, 0.03982433, 0.04827487, -0.01015661, -0.11111265},
  {0.10641287, 0.13781089, -0.01898552, 0.08496793, 0.13869023, -0.05157507, -0.05920630, -0.18942876, -0.06665905, -0.30124536},
  {-0.18055232, -0.40188867, -0.02707246, -0.15107928, 0.12406968, 0.13832046, 0.03602967, -0.37388977, 0.06449130, -0.18257946},
  {-0.26550227, -0.25646323, -0.20766710, -0.32571313, 0.19274631, 0.08566806, -0.02994356, -0.22476958, 0.09026849, -0.33672971},
  {-0.04757167, 0.23277602, -0.11810022, -0.11748262, 0.10530410, 0.07704610, 0.03194280, 0.08961985, -0.23214157, -0.12884407},
  {-0.22212115, -0.22166707, -0.09514233, 0.01175421, 0.10599195, 0.07252471, 0.01951144, -0.21703176, -0.03832584, -0.21828669},
  {0.07089163, -0.25689927, 0.03607774, -0.01775433, -0.16352157, -0.42602673, -0.09584237, 0.22302270, -0.12194028, -0.26413140},
  {-0.00263901, -0.19896948, 0.01048342, 0.00225564, -0.02958583, -0.38276064, -0.25111678, 0.27700722, -0.01447940, -0.30038565},
  {0.06010340, 0.34707546, -0.13247779, -0.13664404, -0.05180371, 0.04303231, -0.08808946, 0.19316339, -0.32786983, -0.08039351},
  {0.06628551, -0.04480733, 0.06526204, 0.10678498, -0.13650179, 0.02836067, -0.10041564, 0.19657116, -0.23798645, -0.24796005},
  {-0.24204808, -0.08766350, 0.07597711, 0.14345817, 0.06988546, -0.31541854, 0.03425640, 0.13006052, -0.06339426, -0.33894566},
  {-0.19258887, -0.02573795, 0.08705613, 0.15211435, 0.25925225, -0.30757457, -0.04727062, 0.15511307, -0.00584663, -0.44979948},
  {0.08135966, 0.43570819, 0.07593848, 0.01584524, 0.03286700, -0.02728689, -0.13944848, 0.17561783, -0.38042304, -0.15531601},
  {-0.11870534, -0.03495513, 0.08559249, 0.23875092, -0.21232794, -0.24312942, -0.14866023, 0.01460296, -0.17293082, -0.31583330},
  {-0.00741229, -0.16237913, -0.11169680, -0.01039628, -0.09263903, -0.11914919, -0.11136083, 0.11869745, 0.02990967, -0.00956018},
  {-0.04364154, -0.04743799, -0.16364317, 0.02090401, 0.10956682, 0.07314011, -0.13992697, 0.32237795, 0.08723041, -0.45137057},
  {-0.04681873, 0.05772788, 0.22611655, 0.22796032, -0.06437220, -0.42010716, -0.20782585, 0.17608328, -0.17221616, -0.26528215},
  {-0.19175887, -0.15338942, 0.11417922, -0.03719089, 0.06852975, -0.02607435, 0.15128899, -0.37499836, 0.13948831, -0.34805614},
  {-0.06225988, -0.25402474, -0.13339050, -0.01936450, -0.00344542, 0.10231801, -0.10597541, 0.13690218, -0.03953278, 0.09938043},
  {0.03852864, -0.27010164, 0.03634011, -0.13412483, 0.01127461, 0.14666267, -0.22728564, 0.31420732, 0.09584440, -0.38459006},
  {-0.25572002, 0.00279196, 0.15229887, 0.25611719, -0.26296273, -0.64988238, -0.27500284, 0.14031950, -0.16751519, -0.10366686},
  {-0.23621888, -0.37689114, -0.19893658, -0.33859313, 0.35099790, 0.14709036, 0.23205078, -0.19087115, 0.20701782, -0.08717299},
  {0.03727904, -0.13174163, 0.06855798, 0.01373950, -0.14162834, 0.01676232, 0.00800829, 0.14474696, 0.06600028, -0.17582250},
  {0.07407063, -0.08031887, -0.01006688, -0.10638990, 0.01318018, 0.09846707, -0.55258954, 0.29342330, 0.08174475, -0.27106503},
  {-0.28841928, -0.07655822, 0.08721618, 0.31435165, -0.50391954, -0.39722764, -0.35375479, 0.23592547, -0.13764636, 0.10646486},
  {-0.09818110, -0.20729902, -0.19750431, -0.25510412, 0.44583777, 0.16606528, 0.23967306, -0.24231894, 0.10779282, 0.18125354},
  {-0.09711622, -0.18669452, 0.01850378, -0.07165864, -0.13145339, 0.01361985, -0.10214698, 0.18336265, -0.04700503, 0.00380430},
  {-0.05050835, -0.00388808, -0.06953131, -0.01681326, -0.34653071, 0.16639498, -0.56562340, 0.16326019, 0.23199472, -0.13467765},
  {-0.13812868, -0.35586241, 0.08664867, 0.34408185, -0.85731697, -0.18800017, -0.25242794, 0.13108711, 0.00852165, 0.20647128},
  {0.06084658, -0.05653411, -0.13580142, -0.42541033, 0.34514323, 0.08989386, 0.13256346, -0.28438005, 0.11867888, 0.08017769},
  {0.18759401, -0.12711079, 0.08179813, 0.00873363, -0.21667774, 0.05046754, -0.07414886, 0.07111160, -0.04731598, 0.29952642},
  {-0.03987012, -0.16732384, 0.20975889, 0.14404042, -0.46480256, -0.01726601, -0.59030378, 0.01080292, 0.12994358, 0.25903013},
  {-0.19055776, -0.47653279, 0.05224699, 0.14258642, -0.90283883, 0.05953168, -0.09217735, 0.19973351, 0.06985749, 0.15767527},
  {0.01223979, -0.01378228, -0.07090783, -0.10632049, 0.38739824, -0.09782428, 0.11806612, -0.21442342, 0.09481484, 0.01563284},
  {0.12694803, -0.02023514, -0.01902257, -0.00215331, -0.15806286, -0.06644598, -0.18950661, -0.01035478, -0.14653400, 0.18084489},
  {0.00768504, -0.48640051, 0.10165858, -0.05189021, -0.44234672, 0.01118021, -0.42112041, -0.05753033, 0.25813967, 0.23812354},
  {-0.08750368, -0.63621747, 0.02158402, 0.07911061, -0.84582883, 0.30110210, 0.06804433, 0.05059804, 0.11472963, 0.21197069},
  {-0.08786286, -0.08018029, -0.00486898, 0.06088089, 0.38792184, -0.41601032, 0.06155956, -0.21022047, 0.09407429, 0.06930371},
  {0.15998538, 0.01928759, 0.01917130, 0.00455348, -0.03347483, -0.07517923, -0.26467964, 0.17022960, -0.05166565, 0.15570933},
  {0.24096352, -0.53951854, 0.09039998, -0.04224924, -0.55275768, -0.10018349, -0.16728823, -0.02011158, 0.12686849, 0.23521778},
  {-0.13944252, -0.56178987, -0.08533054, -0.18001857, -0.83626050, 0.53128928, 0.30486277, -0.01907997, 0.04846907, 0.17041172},
  {0.01399665, -0.13474371, -0.08136872, 0.10050302, 0.33606559, -0.41516763, -0.25940204, -0.01065284, 0.00364576, -0.07453963},
  {0.04842845, -0.03006282, -0.08463517, 0.00602599, 0.15840581, -0.13597091, -0.20174369, 0.06455242, 0.08632028, -0.01257757},
  {0.18934260, -0.35763356, 0.05449027, -0.03178314, -0.36654297, -0.02392634, -0.15816811, -0.13629431, 0.09963831, 0.24042685},
  {-0.27707651, -0.13274403, -0.39960703, -0.41359994, -0.38373238, 0.58893740, 0.28451797, -0.32057989, 0.05382779, -0.03346200},
  {0.05785366, 0.11735469, -0.08045994, 0.10406265, 0.27799839, -0.20774458, -0.32107592, 0.11857893, 0.10896208, -0.10071381},
  {-0.00715694, 0.02798497, -0.13918203, 0.06232299, 0.14540470, -0.14924051, -0.16023257, 0.10684320, 0.02821515, -0.05066752},
  {0.14118342, -0.14815255, 0.02211447, -0.17160933, -0.17010653, -0.17875127, -0.15538897, -0.33227989, 0.17425616, 0.16880418},
  {-0.06334224, 0.14447933, -0.68172532, -0.57440394, -0.13512887, 0.42532226, 0.29300100, -0.15306698, -0.04361593, -0.09533916},
  {-0.09048840, 0.04918395, -0.00124229, 0.08243800, 0.26066217, -0.29697672, -0.25462478, 0.09601603, 0.00388375, -0.10496862},
  {0.08358689, -0.21778704, -0.03559948, 0.11901871, 0.10637558, 0.00656275, -0.25686273, 0.08476154, -0.01855125, -0.23082419},
  {0.23478733, -0.32895476, -0.46668577, -0.18668258, 0.09079833, 0.01507355, 0.04995237, -0.36577234, 0.28625333, -0.04247704},
  {-0.03420639, -0.01744686, -0.31684673, -0.39543688, 0.18936700, 0.34796211, 0.38076159, 0.07186915, -0.09526937, -0.28573671},
  {-0.03548265, 0.04399706, -0.02378519, 0.07193781, 0.15319550, -0.20034747, -0.24935745, 0.10003722, 0.08368152, -0.25392413},
  {-0.08265627, -0.37910360, -0.22234587, -0.16261593, 0.22112913, 0.08186819, -0.10792707, -0.29289532, 0.01876695, -0.23777114},
  {-0.11498008, -0.40541705, -0.20737521, -0.05302078, 0.10085240, 0.15091151, -0.04363549, -0.28103599, 0.03920135, -0.22194254},
  {0.00174826, 0.22186893, -0.02702761, -0.08431339, 0.12706651, 0.23742154, 0.14607280, 0.07621206, -0.18915187, -0.23820810},
  {-0.10486148, -0.37039849, -0.19255246, -0.19421460, 0.07818218, -0.02808206, -0.17041019, -0.20813999, 0.08967318, -0.07154041},
  {0.08419262, -0.18956369, -0.10188230, 0.10222122, 0.01196898, -0.54856873, -0.34507406, 0.16773127, -0.04632229, -0.32046327},
  {0.27470088, -0.25387219, -0.12334970, 0.07295311, 0.11387865, -0.55783784, -0.27911457, 0.14262246, -0.04011817, -0.10348041},
  {0.06610796, 0.42285702, -0.00504275, -0.14454257, -0.07614096, 0.01072500, -0.06253597, 0.21501407, -0.30180904, -0.19949932},
  {0.13587058, -0.08567700, -0.02727157, 0.02864685, -0.22582832, -0.18268767, -0.15135199, 0.12972328, -0.26150957, -0.23348124},
  {-0.24255623, -0.22067933, -0.22878498, 0.11836448, -0.02229494, -0.17358768, -0.20760483, 0.17352138, 0.01501968, -0.14156955},
  {-0.06520650, -0.29366988, -0.05867940, 0.01245629, -0.01073692, -0.18963405, -0.03739076, 0.22786435, 0.06502555, -0.01637837},
  {0.02141643, 0.28571132, 0.04872005, 0.02340916, -0.01635370, -0.14192329, -0.14167123, 0.08794354, -0.20393041, -0.33551368},
  {0.07745378, -0.09229721, 0.05581186, 0.21842439, 0.02550124, -0.31884179, -0.09509473, -0.14803609, -0.27936000, 0.09367588},
  {0.01026354, -0.18629174, -0.16260548, -0.05641923, -0.04531036, -0.00143199, -0.15865579, 0.13757996, 0.01877707, 0.07459895},
  {-0.06855013, -0.06950319, -0.26664731, -0.08363716, 0.11284821, 0.08657522, -0.28496984, 0.30800298, 0.19548209, -0.17170438},
  {-0.05829481, 0.23019424, 0.24164541, 0.22667859, -0.09892134, -0.48975492, -0.25291750, 0.08222708, -0.32343325, -0.15242879},
  {-0.08732169, -0.11979678, 0.02495549, -0.13670821, -0.00722412, 0.01183231, 0.19309159, -0.47238168, 0.19791941, 0.19142942},
  {-0.06057170, -0.05893152, -0.28411549, -0.11668178, 0.02501565, -0.03234448, -0.03257081, 0.08428799, 0.05926377, 0.04330834},
  {-0.12264747, -0.06892320, -0.08136000, -0.14229533, -0.05671795, 0.09454872, 0.01338684, 0.25781420, 0.10237969, -0.21038601},
  {-0.14872617, 0.21194033, 0.25334293, 0.31336269, -0.30276668, -0.48876250, -0.47534063, 0.26266035, -0.27157530, -0.24908878},
  {-0.03947813, -0.38883278, -0.34842905, -0.16463597, 0.15665284, -0.01526819, 0.19363420, -0.42112818, 0.08243612, 0.35864550},
  {-0.01412997, -0.11723554, -0.09205767, -0.17941856, -0.04179953, -0.01342647, 0.03273572, 0.22278896, 0.12150314, 0.06833215},
  {0.04168198, -0.02647737, -0.02307102, -0.20979272, -0.24422301, 0.19869292, -0.28562275, 0.21876536, 0.21091929, -0.09327947},
  {-0.12848917, 0.19360609, 0.27530962, 0.51901698, -0.64089310, -0.35225078, -0.40804940, 0.15424822, -0.20426039, -0.20721805},
  {0.06864289, -0.29880080, -0.28020179, -0.33834580, 0.38243017, -0.05153170, 0.13838238, -0.40813455, 0.11867511, 0.29945257},
  {0.04305126, -0.16091011, -0.17606017, -0.06188960, -0.00629005, 0.17591056, -0.01579993, 0.11133129, -0.03735996, 0.06015080},
  {-0.03660430, -0.14349167, -0.01290768, -0.18385454, -0.43629751, 0.15052843, -0.49420810, 0.07619099, 0.41102093, 0.04615166},
  {-0.22400421, -0.03093438, 0.18112138, 0.53482813, -0.46525359, -0.12181136, -0.41685477, 0.14983360, -0.01644936, 0.05518586},
  {-0.11102683, -0.31242204, -0.21789306, -0.25842917, 0.37959775, -0.02809184, 0.07943106, -0.24170943, 0.13805436, 0.36021689},
  {0.13122021, 0.08972281, -0.27474239, 0.03909771, -0.17258170, 0.10287289, -0.15392393, 0.22202691, 0.01398538, 0.14971350},
  {-0.03082990, -0.25002417, 0.06988760, -0.14852938, -0.39371985, 0.13863164, -0.75251561, 0.08621099, 0.42651790, 0.21701880},
  {-0.18306981, -0.32694444, 0.19000357, 0.19733597, -0.34328443, 0.04283790, -0.07641999, 0.00454122, -0.08101606, 0.07334540},
  {0.04847413, -0.16474800, -0.15423018, 0.01396139, 0.31282526, -0.16964744, 0.07716503, -0.20099208, 0.08022717, 0.22757122},
  {0.03461196, 0.12424538, -0.14726879, 0.01794360, -0.24198592, -0.04616347, -0.27833122, 0.15766492, -0.17156699, 0.20456351},
  {0.21177833, -0.30911112, 0.02729270, -0.14703161, -0.21963610, 0.24829036, -0.47891384, 0.14073445, 0.10903789, 0.10000084},
  {-0.16882494, -0.52963722, -0.01379241, 0.11767945, -0.43446231, 0.19701374, 0.26573718, -0.00752413, 0.13420105, -0.00282963},
  {-0.05131865, 0.03605105, -0.10198260, 0.15996486, 0.30179161, -0.57438439, -0.00214564, 0.07693718, 0.09122311, 0.13715962},
  {0.15832528, -0.04312755, -0.02149819, 0.03165269, 0.07114834, -0.20053023, -0.28928757, 0.22399932, -0.05507418, 0.04383823},
  {0.18756238, -0.31769040, -0.05502616, -0.12134745, -0.43589735, 0.22574529, -0.36709815, 0.00073098, 0.11557367, 0.16615027},
  {-0.17325941, -0.55816925, -0.20824656, 0.00305901, -0.59866136, 0.48854092, 0.34646609, -0.13205417, 0.05418038, 0.02887787},
  {0.13245648, -0.07677384, 0.06842030, 0.12172184, 0.32355437, -0.70694155, -0.43198147, 0.15090230, -0.01336744, 0.03401787},
  {0.13493446, 0.00364230, 0.02558747, -0.06359273, 0.10179463, -0.19191985, -0.32019585, 0.25184798, -0.02862897, 0.07792544},
  {0.24306719, -0.18865901, 0.04012351, -0.03608972, -0.35631117, 0.20533870, -0.02182396, -0.14971590, 0.07909836, 0.13931713},
  {-0.26392037, -0.15885893, -0.57191402, -0.17987569, -0.30093277, 0.55343968, 0.34341300, -0.25153220, 0.23086630, -0.03985491},
  {0.20416114, -0.00712846, 0.15999563, 0.13280246, 0.20997958, -0.66102278, -0.39053062, 0.14532287, 0.15466033, -0.09958590},
  {0.14123850, -0.01790093, 0.03854884, -0.01756110, 0.01794846, -0.37897554, -0.22578306, 0.12204633, 0.15113093, -0.10880996},
  {0.19703518, -0.24781975, -0.09151333, -0.06227950, -0.08173615, 0.09484050, -0.00544775, -0.21198437, 0.12825814, 0.03351111},
  {-0.34763968, 0.02659837, -0.34013247, -0.30384138, -0.07647796, 0.41826564, 0.23400553, -0.20200863, -0.02637284, -0.15672009},
  {0.13539866, -0.15898904, -0.02135759, 0.08131338, 0.18875679, -0.50468534, -0.41281772, 0.17008567, 0.11451609, -0.07944358},
  {0.01449997, -0.25125462, 0.13742061, 0.06779470, -0.16677956, -0.03981189, -0.32636416, -0.07327005, 0.08372396, -0.11476199},
  {0.06254975, -0.26961210, -0.22517531, -0.27442649, -0.01584599, 0.16816565, -0.00978841, -0.16972719, 0.03352176, -0.15078634},
  {-0.30221531, 0.05005834, -0.25977761, -0.18531336, 0.16383007, 0.47062790, -0.01991624, 0.02356566, -0.09699655, -0.25369611},
  {0.01044909, -0.09046504, 0.01633284, 0.02530968, -0.02443200, -0.28892159, -0.39374092, 0.05049602, 0.03264233, -0.12395056},
  {-0.06011911, -0.34244832, -0.29951108, -0.50920355, -0.10240380, 0.23142949, -0.38473123, -0.22840065, 0.11945650, -0.10726762},
  {-0.25866535, -0.53596723, -0.35386565, -0.81098932, 0.11668316, 0.32573184, -0.44104141, -0.11536790, 0.08631779, -0.36624086},
  {-0.18827941, 0.15842862, -0.15285763, -0.35983106, 0.05618013, 0.28071955, -0.10355111, 0.10620373, -0.14011511, -0.11322762},
  {-0.10404179, -0.36006525, -0.19947349, -0.76741946, -0.02402965, 0.12291573, -0.33247206, -0.39765936, 0.16267410, -0.14381304},
  {0.00940008, -0.18038191, -0.16239016, 0.04521532, -0.06114056, -0.41126773, -0.36169100, 0.15329137, -0.17374685, -0.17699529},
  {-0.03405729, -0.06549468, -0.18646751, 0.07072247, -0.02171752, -0.29314619, -0.31775135, 0.22668932, -0.06313021, -0.16631275},
  {0.14128998, 0.32523865, -0.11495835, 0.00065405, 0.09127510, 0.03095613, 0.00000244, 0.12760656, -0.39243037, -0.13746452},
  {0.06585117, 0.03721640, -0.16872753, -0.10301017, 0.10630295, -0.19588596, -0.03731916, 0.11748676, -0.27946410, -0.05524142},
  {-0.14062005, -0.05946167, -0.16093300, -0.12884198, -0.14366624, -0.07021198, -0.19991823, 0.27233461, -0.07840290, 0.07596553},
  {-0.18591812, -0.21882713, -0.22789754, -0.07006433, 0.02881512, -0.00343643, -0.20921305, 0.22303198, 0.12692025, 0.03766105},
  {0.04841611, 0.22110209, 0.29284504, -0.01792525, -0.13839433, -0.04613345, -0.28945708, 0.20314699, -0.21855940, -0.23221779},
  {-0.04325840, 0.09272084, -0.19563478, 0.29671025, -0.10600013, -0.31889415, -0.25809741, -0.20470381, -0.37623867, 0.27407828},
  {0.06122860, -0.25534666, -0.17387861, -0.24505110, -0.09807802, -0.09917957, 0.07209622, 0.13513325, 0.03149907, 0.06062786},
  {-0.02945017, -0.39086661, -0.03937082, -0.24300426, -0.11467583, -0.00988106, -0.14523292, 0.08266499, 0.20723279, 0.09954416},
  {-0.18663713, 0.15052116, 0.43862423, 0.15860593, -0.43331370, -0.29163522, -0.41533977, 0.09735027, -0.12613383, -0.27421477},
  {0.08005434, -0.14213738, -0.12502946, -0.08893791, -0.02499012, -0.20252676, 0.21412343, -0.45834669, 0.02961226, 0.36978674},
  {0.02081665, -0.15350257, -0.27069205, -0.29029095, 0.20485701, -0.13410255, 0.13287194, 0.09986127, -0.04494995, 0.18598883},
  {-0.14061090, -0.28016531, -0.16449112, -0.25864106, -0.01889119, -0.00398045, -0.12706299, 0.01891947, 0.24265912, 0.12198223},
  {-0.27707830, 0.04723823, 0.40867594, 0.29689115, -0.26831961, -0.19346662, -0.61932462, 0.12544984, -0.15075447, -0.45613727},
  {0.18053409, -0.20608422, -0.38243690, 0.05786083, 0.22215003, -0.20690951, 0.27131674, -0.29056120, -0.08194221, 0.31689423},
  {0.17184639, -0.07839859, -0.29560661, -0.06580543, 0.18884762, -0.02057569, 0.09283177, -0.00283766, -0.01162923, 0.17530413},
  {-0.10492703, -0.13647269, -0.20758246, -0.32050040, -0.08151937, 0.12627725, -0.37547120, -0.01125957, 0.28660110, 0.18117680},
  {-0.31132665, 0.16146302, 0.46205908, 0.22063372, -0.19361994, -0.16056471, -0.62154800, 0.10392604, -0.11899446, -0.17229964},
  {0.08216012, -0.23355466, -0.42361948, -0.03752757, 0.29364830, -0.02942071, 0.23947686, -0.23073947, -0.00840540, 0.13043816},
  {-0.02267718, -0.23874174, -0.28706571, 0.01296939, 0.16415867, 0.01801280, 0.18072884, -0.10604717, 0.03277414, 0.05049052},
  {-0.05390925, -0.10395218, -0.30101520, -0.29653519, -0.13113132, 0.04557505, -0.48587975, -0.16610393, 0.53502250, 0.33784434},
  {-0.41066334, -0.00696152, 0.36517414, 0.27884284, -0.18947336, -0.09850921, -0.39673528, 0.00898255, 0.00611024, 0.07669277},
  {0.05526963, -0.32951987, -0.32213089, -0.14119732, 0.21419883, -0.08751845, 0.01922090, -0.07520523, -0.17199180, 0.08340613},
  {0.03951159, 0.32109317, -0.28461584, 0.22574650, -0.18112531, 0.08118376, -0.02495481, -0.01298903, -0.02497489, 0.07704794},
  {0.08340117, -0.13875757, -0.37232780, -0.03899393, -0.37765649, 0.20317334, -0.42681229, 0.10664015, 0.41903728, 0.27976418},
  {-0.07841329, -0.30909497, 0.10021860, 0.14508174, -0.18772021, 0.13314246, -0.09340834, -0.17472713, -0.21513295, 0.22028627},
  {0.05497854, 0.00068146, -0.18237288, -0.04699512, 0.11637755, -0.09962481, 0.12944905, -0.14933464, -0.06660604, -0.17481364},
  {-0.22640286, 0.24248603, -0.23478648, 0.14749390, -0.31141183, -0.06978110, -0.11162558, 0.21968848, -0.09815871, 0.22884876},
  {0.06354588, -0.02181853, -0.17703997, -0.15066205, -0.26588646, 0.11830005, -0.18079548, -0.00554440, 0.08681286, 0.18822266},
  {-0.21865867, -0.62204915, 0.01009538, 0.27280769, -0.56555414, 0.46018636, 0.22904174, -0.18394119, -0.17290165, -0.19159353},
  {-0.13278019, 0.11792750, -0.02001564, -0.01454036, 0.13202435, -0.49600905, -0.21331684, 0.29681882, 0.08118235, -0.23894663},
  {-0.06595057, 0.02376679, -0.07887177, 0.00838981, 0.02320191, -0.17013913, -0.13949057, 0.20844795, -0.05928563, 0.15088128},
  {0.16046493, -0.23085590, -0.09350327, -0.05895134, -0.22502571, 0.28645822, -0.13442822, 0.03084425, -0.11203364, 0.17661849},
  {-0.33815801, -0.41377461, -0.36795655, 0.31639412, -0.61814123, 0.43202305, 0.33329946, -0.04542181, 0.17158866, -0.11760773},
  {-0.07300624, 0.10666140, 0.03026826, -0.05894430, 0.23189127, -0.70058459, -0.34154683, 0.24991159, 0.06538265, 0.00557803},
  {0.08111431, -0.03404572, 0.13854983, -0.16380227, 0.00721060, -0.23215333, -0.15949677, 0.10061301, -0.04915240, 0.16576219},
  {0.04598177, -0.14677055, -0.07256705, -0.10017754, -0.35675251, 0.13362098, 0.06616165, -0.00021967, -0.11550096, 0.13972013},
  {-0.23886737, 0.06627773, -0.51258475, 0.18380210, -0.29691872, 0.14842060, 0.21319059, 0.01200946, 0.32519570, -0.38450477},
  {0.15094362, 0.00364392, 0.18319154, -0.09769982, 0.07797740, -0.56608701, -0.44220859, -0.01544031, 0.11494913, 0.10773496},
  {0.06385975, -0.06574661, 0.00145238, -0.14644893, -0.03965273, -0.31358492, -0.18015310, -0.03113257, 0.05631513, 0.22987182},
  {0.08253879, -0.16800533, -0.18641526, 0.00212945, -0.17937736, -0.10762908, 0.20716143, -0.00994645, 0.00919708, -0.15374196},
  {-0.29814646, 0.22724704, -0.15491706, 0.22621424, -0.00002880, 0.29404432, 0.14440173, 0.10151761, 0.10823211, -0.51676118},
  {0.21359807, -0.05094056, 0.12528336, -0.17865838, 0.08279992, -0.70637184, -0.28674859, 0.04243927, 0.11204690, 0.11552002},
  {0.22391348, -0.07866513, -0.00285917, -0.20181671, -0.23511364, -0.26030955, -0.00955727, -0.06168952, 0.04434673, 0.15367256},
  {0.07152427, -0.10036982, -0.27634096, -0.00500574, -0.26504633, 0.09741513, 0.01803584, -0.04850826, 0.12208802, -0.05734854},
  {-0.46230036, 0.31749234, -0.08165786, -0.08495276, -0.02000320, 0.47760573, -0.42579392, 0.04321616, -0.01814782, -0.27017462},
  {0.24503210, -0.11463781, 0.08184946, -0.25921342, -0.14661662, -0.56563252, -0.09968863, -0.08472630, 0.11717539, 0.11421243},
  {-0.01839318, -0.36410433, 0.20275079, -0.56246054, -0.32441598, 0.20712277, -0.15389308, -0.06665144, 0.07636859, -0.23722273},
  {-0.28941387, -0.19226560, -0.07510521, -0.59058791, -0.28646681, 0.42740253, -0.37566105, -0.22970952, -0.07307383, -0.11659741},
  {-0.12131205, 0.35193262, -0.02714237, -0.32558447, 0.04754064, 0.41012010, -0.10003185, 0.10404121, -0.21603793, -0.16520488},
  {0.11611123, -0.42189458, 0.06737214, -0.45296547, -0.40506461, 0.06805664, 0.06076495, -0.37833434, 0.09049077, -0.09710272},
  {-0.09950052, -0.02462848, -0.30840695, -0.02895097, -0.02438374, -0.21807034, -0.31621948, 0.29258609, -0.05851375, -0.20081362},
  {-0.05894655, -0.12239198, -0.05832558, -0.27572212, -0.09692632, -0.14958227, -0.38209543, 0.25219965, 0.00432243, -0.18922901},
  {0.12118100, 0.35334042, -0.00333642, -0.21262711, -0.09860023, 0.00792205, -0.00117148, 0.38550368, -0.27487114, -0.08441442},
  {0.12354353, 0.00779284, -0.22818030, 0.00675389, -0.00531140, 0.10338005, -0.13882281, 0.14760184, -0.14040384, -0.20969608},
  {-0.01888965, 0.07558925, -0.21864402, -0.10248830, 0.08400580, -0.15923235, -0.27340955, 0.14426301, -0.11876877, 0.08542651},
  {-0.07842739, -0.12186505, -0.22768769, -0.11935878, -0.07583100, -0.25874504, -0.02186950, 0.15575671, 0.01068821, 0.17460610},
  {-0.13312863, 0.33218810, 0.10585663, 0.01447562, -0.20292829, 0.10127687, -0.17421223, 0.33781755, -0.20938858, -0.12859952},
  {0.02266574, 0.25884485, -0.11731786, -0.16282627, -0.35616601, -0.27688313, -0.25779396, 0.01023537, -0.05966396, 0.21382359},
  {0.10718441, -0.17953730, -0.04030170, -0.40656471, 0.07476100, -0.16250806, 0.13413487, 0.09765810, 0.01368516, 0.04165416},
  {-0.06963573, -0.25542888, -0.15520914, -0.19574098, 0.05714451, 0.04619255, -0.00024275, -0.02409732, 0.14103813, 0.07201589},
  {-0.30492964, 0.23336628, 0.19587202, -0.10481333, -0.09605627, 0.18515453, -0.35752079, 0.11089639, -0.00008412, -0.21166188},
  {0.22065839, 0.09265910, -0.26565832, 0.07207223, -0.19510457, -0.29926485, 0.37474820, -0.15133420, -0.20376194, 0.15812510},
  {0.17452726, 0.11640345, 0.02544538, -0.19313374, 0.16361044, -0.19153669, 0.09882755, -0.12595542, 0.04608964, -0.04313165},
  {-0.12209792, -0.12331623, -0.26699054, -0.20506376, 0.01126361, 0.04160978, -0.04888232, -0.29070666, 0.21860026, 0.16196333},
  {-0.50239486, 0.19121282, 0.37598205, 0.09398925, -0.10057996, -0.03781193, -0.54261065, 0.30990672, -0.04764765, -0.39194885},
  {0.23085809, -0.18833840, -0.28053755, 0.05931952, 0.05369195, -0.24992731, 0.19408560, 0.03421175, -0.38213187, 0.08700374},
  {0.12920594, -0.16136540, -0.10014588, -0.21807013, 0.17471801, -0.12291373, 0.14301436, -0.14261064, -0.09776878, 0.04294328},
  {-0.11330492, -0.37253243, -0.26147151, -0.24936050, -0.07851904, 0.11087234, 0.01361825, -0.27630228, 0.33313370, 0.30583978},
  {-0.36095321, 0.04676706, 0.27101043, 0.05390504, -0.01974038, -0.03645371, -0.62427390, 0.18180993, -0.03168235, -0.16568805},
  {0.24246724, 0.10574981, -0.30747977, 0.13841413, 0.05960585, -0.16880061, 0.15219253, 0.08069878, -0.25224411, 0.01229022},
  {-0.00086899, -0.06141944, -0.11849046, 0.12669092, 0.02721256, -0.02662554, 0.14255205, -0.31616232, 0.07962083, -0.11182275},
  {-0.06384172, -0.12000624, -0.26737466, -0.07929648, 0.17317165, -0.02695645, -0.34702504, -0.37892127, 0.40181947, 0.16054976},
  {-0.46096399, -0.32266796, 0.20729046, 0.12384044, 0.20855519, 0.10093632, -0.41531515, -0.18506560, -0.14588529, 0.17334725},
  {0.23183097, -0.14290889, -0.24190786, -0.16967253, 0.11174129, -0.14040190, 0.15156281, 0.06853892, -0.08912484, -0.17617503},
  {-0.26837641, 0.20199986, -0.11116835, 0.28557965, -0.31270814, 0.09609649, -0.05885300, -0.30809110, -0.00871648, 0.04553954},
  {-0.34990901, -0.05839500, -0.30162120, 0.11329481, 0.01914973, 0.19683219, -0.21297182, -0.51201391, 0.30837637, 0.23560177},
  {-0.28214228, -0.48523828, 0.04196535, 0.16771729, 0.20265625, 0.24075338, -0.05149764, -0.50476861, -0.26572490, 0.36790690},
  {0.25789541, 0.40920427, -0.03500830, -0.09132099, -0.10996642, -0.12216061, 0.20000492, -0.24799632, -0.07189391, -0.27228990},
  {-0.54245430, 0.21687241, -0.18870278, 0.06263118, -0.16067418, -0.04432843, 0.05278094, 0.01683079, -0.04964129, 0.15330096},
  {-0.22588338, -0.05280287, -0.32667837, 0.01558111, -0.12708129, 0.16306067, 0.10339053, -0.22157627, -0.14200892, 0.28919309},
  {-0.40434349, -0.46140996, -0.19475313, 0.25380728, -0.57422733, 0.22725810, 0.20367375, -0.02409620, 0.11682342, -0.01807777},
  {-0.20979321, 0.20771939, -0.01172994, -0.12792344, -0.12218761, -0.14688414, 0.07010445, 0.11135689, -0.02118943, 0.05190490},
  {-0.20808531, -0.02142556, -0.10264022, -0.03620729, 0.12423595, -0.10826161, -0.05312847, 0.10258847, -0.12461174, 0.24265517},
  {-0.00303046, -0.34680954, -0.38341725, 0.16464421, -0.13402487, 0.16059436, 0.09097070, 0.11489978, 0.10349725, -0.06990966},
  {-0.38411829, -0.24958670, -0.23349091, 0.35574239, -0.17515132, -0.06657594, 0.10376175, -0.00597294, 0.28115323, -0.54942954},
  {0.01138666, 0.07280129, 0.08882622, -0.14161336, 0.16288421, -0.33322650, -0.10958390, 0.14638883, -0.06934223, 0.17504725},
  {0.01881424, -0.15016195, 0.00223790, -0.01759720, 0.13810059, -0.17917728, -0.07189547, 0.12308512, -0.03882554, 0.26771966},
  {-0.06729185, -0.17410275, -0.35414994, 0.21211283, 0.02125742, 0.01562034, 0.17568092, 0.00800679, 0.12659135, 0.14173277},
  {-0.24775550, 0.08003525, -0.27827737, 0.21581960, 0.14603196, -0.12499993, -0.07338408, 0.01313632, 0.28259674, -0.42288476},
  {0.12154461, -0.09801673, 0.06682767, -0.13041377, 0.00026719, -0.33348727, -0.22088499, -0.00236580, -0.09176690, 0.13848002},
  {0.03650111, -0.18060893, -0.10508619, -0.07666518, 0.04697625, -0.12282582, -0.02184043, 0.07726678, -0.13415796, 0.19169107},
  {0.10200538, -0.15201086, -0.30279750, -0.12780109, 0.12740038, 0.15662584, 0.11859240, 0.10861635, 0.07899075, -0.11217795},
  {-0.21977846, 0.11856318, -0.01725425, -0.02593986, 0.37321475, -0.13213636, -0.15338466, -0.07030121, 0.15582700, -0.39807829},
  {0.12148742, -0.09906513, 0.01323870, -0.23938332, 0.09756466, -0.37703565, -0.04767932, -0.02844762, -0.07736397, 0.24226274},
  {0.14789724, -0.27747825, 0.00180342, -0.24887812, -0.15514189, -0.15834147, 0.05699115, -0.06692084, 0.01558893, -0.02525916},
  {0.01020547, -0.21790683, -0.04006096, -0.15473360, 0.07181562, -0.05266186, 0.10498241, -0.10715889, 0.08787044, -0.08897069},
  {-0.25786388, 0.30335176, 0.41680858, -0.39649782, 0.21669126, -0.20593593, -0.25530067, 0.02254098, 0.00244886, -0.25754094},
  {0.23095760, -0.20500794, -0.01182100, -0.24623348, 0.00004861, -0.35933578, 0.23493677, -0.14228323, -0.11300814, 0.14623263},
  {0.13363773, -0.48888105, 0.24743530, -0.17882863, -0.34750113, -0.17854671, 0.15342091, -0.20525062, 0.03795208, -0.55094874},
  {-0.12530653, -0.38046160, 0.34508303, -0.43898371, -0.20446475, 0.10554867, -0.22865643, 0.01184271, 0.01991970, -0.44801497},
  {-0.13026510, 0.36993036, 0.30583969, -0.17530109, 0.03244249, 0.02749193, -0.14967903, 0.15529794, -0.20246556, -0.15409367},
  {0.27309141, -0.41170612, 0.12584232, -0.04433876, -0.32557815, -0.22283478, 0.16414036, -0.25132805, -0.04417696, -0.39189699},
  {-0.23814519, 0.21703349, 0.07526451, 0.10729963, 0.02113873, -0.31169447, -0.27558458, 0.16590552, -0.03170068, -0.15705465},
  {-0.17453457, -0.02830253, -0.01320130, 0.00960114, -0.06825401, -0.23582414, -0.28279221, 0.07298946, -0.11426854, -0.11919816},
  {-0.05245502, 0.40844715, -0.10396197, -0.09887647, 0.06318992, 0.06696357, -0.01723048, 0.31453568, -0.40540642, -0.19238378},
  {-0.06237525, 0.13657267, -0.11687064, 0.05987493, -0.08839259, 0.01718065, -0.03449458, 0.07884780, -0.16406552, -0.22955771},
  {-0.06500471, -0.21813780, 0.08885104, 0.01260184, 0.01909655, -0.13421959, -0.21663037, -0.07786135, -0.03447777, -0.10183995},
  {-0.02669813, -0.15596850, -0.08164176, -0.02174383, 0.19271171, -0.11427570, -0.02361177, -0.02199309, -0.03140352, 0.06907817},
  {-0.10684058, 0.43123454, -0.20371871, -0.30850244, 0.23120351, 0.18452160, -0.19842641, 0.07113563, -0.22928669, -0.09299020},
  {0.12867790, 0.27563795, 0.10560343, -0.10210881, -0.13102745, -0.28058758, -0.18395071, 0.06895197, -0.14375079, -0.09051196},
  {0.08656617, -0.19200231, 0.10755503, -0.27755997, 0.17121485, -0.10165273, -0.00171867, -0.05122897, 0.19845371, 0.03040464},
  {0.04264531, -0.27625206, -0.14179336, -0.02830814, 0.10308526, -0.13049684, 0.06335728, -0.34228176, -0.01398478, 0.05629206},
  {-0.05419346, 0.38508368, -0.03763079, -0.12077243, 0.21795970, 0.30228889, -0.25673813, 0.01271917, -0.08778149, -0.13996550},
  {0.27218282, -0.17730235, -0.09121503, -0.18597271, -0.26679301, -0.28545627, 0.26581699, 0.04479130, -0.13572443, 0.00762519},
  {0.17539515, -0.16962975, 0.05978042, -0.32429290, 0.19990808, -0.33524689, 0.14215833, -0.21171014, 0.08040503, -0.01885197},
  {0.00820785, -0.02048345, -0.13055529, -0.03133674, 0.11145880, 0.03394953, -0.05091674, -0.30322614, 0.05577492, 0.20875069},
  {-0.34979251, 0.25513068, 0.11403322, 0.09021116, 0.07250714, 0.31797838, -0.58522159, 0.16494079, -0.17182571, -0.24703541},
  {0.27820745, -0.16894670, -0.05284641, -0.38390562, -0.03813636, -0.37626389, 0.29017496, 0.28548273, -0.18146273, -0.16943271},
  {0.14053068, -0.17535070, 0.18437128, -0.34910244, 0.14659363, -0.25890580, 0.08610824, -0.12157501, 0.03088303, 0.03824029},
  {-0.06175311, -0.19560140, -0.08481845, 0.08332299, -0.05839027, 0.06869001, 0.05358936, -0.30489239, 0.09612231, 0.22491008},
  {-0.36153972, -0.22097395, -0.09246746, 0.08779852, 0.03778613, 0.16448700, -0.62485528, 0.22527806, -0.09658021, 0.07964040},
  {0.15165645, 0.23786739, 0.08900197, -0.44917613, -0.07212282, -0.27311060, 0.12412400, 0.35512024, 0.10841856, -0.23628925},
  {0.00863306, -0.13836868, 0.14765246, -0.21056949, 0.09958063, -0.20953925, 0.24293882, -0.23076366, 0.20695363, -0.00619691},
  {-0.11586381, -0.14377189, -0.14904523, 0.10116802, 0.14735229, 0.10820422, -0.09419144, -0.39356470, 0.12648487, 0.06571331},
  {-0.22528479, -0.35182589, -0.11266308, 0.06423725, 0.22697246, 0.20553190, -0.38492224, -0.33125722, -0.22748876, 0.33750683},
  {0.32131889, -0.09999321, 0.17720811, -0.38010341, -0.08734467, -0.15538169, 0.28709304, 0.10293893, 0.17949148, -0.26840752},
  {-0.36574584, 0.19370095, 0.22010502, -0.07203905, 0.00296528, -0.13984892, 0.24196726, -0.26907149, 0.16324639, -0.09297352},
  {-0.34014326, -0.07847646, -0.14521357, 0.12579004, 0.10751739, 0.03017935, -0.06791397, -0.44170827, 0.12404036, 0.11132004},
  {-0.28078154, -0.25717562, -0.00225355, 0.28762615, 0.25123179, 0.12087169, -0.15622437, -0.63779759, -0.29203391, 0.22925469},
  {0.16785327, 0.27059898, 0.14653800, -0.32134491, -0.11825322, -0.07068878, 0.19659284, -0.19768797, 0.07220460, -0.12839465},
  {-0.40399364, 0.20718603, 0.01942047, -0.14568152, 0.11981203, -0.02916309, 0.17938307, 0.09524038, -0.02668010, -0.03384878},
  {-0.43777701, -0.09513497, -0.16266197, 0.23388393, -0.03027298, -0.07151843, 0.15478216, -0.18532576, 0.17321099, 0.13870443},
  {-0.45471790, -0.15237482, -0.11040836, 0.35522822, 0.05987236, -0.06523437, 0.12530272, -0.13947801, -0.02561549, -0.02249355},
  {-0.17619735, 0.21614008, 0.14078046, -0.31672320, -0.00347342, -0.13373235, 0.17763297, 0.00152061, -0.05098657, 0.05748665},
  {-0.12362747, -0.17897034, -0.02884951, 0.01079584, 0.05892026, -0.05292401, 0.11326534, 0.29493117, -0.09141521, 0.07500907},
  {-0.32390764, -0.46385416, -0.38059384, 0.18015595, 0.02366516, -0.02225663, 0.18338607, 0.05063865, 0.33598179, -0.19852701},
  {-0.32619649, -0.18320517, -0.10281277, 0.16056027, 0.17429768, -0.19861980, 0.09644500, 0.25297204, 0.34806859, -0.40294784},
  {0.06204699, -0.04343803, -0.12873223, -0.16363654, 0.01634687, -0.03233897, 0.06343414, 0.04587229, -0.10976665, 0.12554096},
  {-0.02667837, -0.32479906, -0.13968813, 0.04508784, 0.17027631, -0.08607069, 0.08408417, 0.07152545, -0.17395751, 0.06029511},
  {-0.10762352, -0.60475111, -0.39130509, 0.04458884, -0.04635902, -0.05226751, 0.10101888, 0.12955627, 0.14503504, -0.23035502},
  {-0.09925816, -0.06641606, 0.09128710, -0.10633139, 0.19449373, -0.35326090, 0.00510329, 0.22981229, 0.16328639, -0.49608395},
  {0.00865002, -0.36238873, -0.07700932, -0.12139106, 0.03905676, -0.06633213, 0.15314525, 0.25565928, -0.30005848, 0.09790264},
  {0.07240766, -0.33672798, -0.09153874, -0.00770767, 0.06118178, 0.08031852, 0.00950225, 0.06697008, -0.13268450, 0.05578353},
  {-0.02634115, -0.23172419, -0.09674779, 0.02160793, 0.09244023, 0.06518157, 0.02805994, -0.08215113, 0.07528367, -0.09604640},
  {-0.07166126, 0.21896619, 0.45184842, -0.34663090, 0.04791404, -0.36556363, 0.03021257, 0.03877096, 0.12378385, -0.29014435},
  {0.05388286, -0.24591085, -0.15527350, -0.03834152, 0.02599822, 0.06744651, 0.05906106, 0.11335289, -0.24455117, 0.16913661},
  {0.10140594, -0.21521680, -0.19726926, 0.10175899, -0.10947417, -0.03044953, 0.06823251, -0.04701072, -0.10606579, -0.07346790},
  {0.02979220, -0.10508966, -0.04867829, 0.05443560, -0.00275019, 0.04564339, 0.12187300, -0.14064169, -0.07087625, -0.37106296},
  {-0.01165629, 0.39816147, 0.59757239, -0.55976534, -0.01746315, -0.31561294, -0.02567449, -0.03421028, -0.22643383, -0.34767461},
  {0.27063191, -0.24647374, -0.24985625, -0.03305959, -0.06801057, -0.06292612, 0.08426353, 0.08412139, -0.33863363, 0.03062807},
  {0.10007186, -0.16264124, 0.20533130, -0.14439707, -0.15250465, -0.10182630, 0.08266112, -0.27105880, -0.09418231, -0.57100230},
  {-0.07789743, -0.17283747, 0.40634829, -0.10721254, -0.09990304, -0.09506306, -0.21622229, -0.28799072, -0.19047596, -0.52695858},
  {0.02074556, 0.37884659, 0.33795545, -0.25928536, -0.04115416, 0.14013854, -0.21494161, 0.00492613, -0.37070274, -0.23100847},
  {0.09091984, -0.03177441, 0.11187960, 0.08214909, -0.18971716, 0.12014305, 0.13468288, -0.29040924, 0.02151424, -0.59590572},
  {-0.10617773, -0.06327864, -0.00698351, 0.16408320, -0.04259936, -0.13173570, -0.25738192, -0.02272965, -0.25364590, -0.26239911},
  {-0.11504979, -0.07219394, 0.16995257, 0.33919722, -0.17750198, -0.44858497, -0.22048439, -0.21743412, -0.56200069, -0.14326307},
  {-0.00371995, 0.38866681, -0.00871187, -0.22168095, 0.07726064, 0.13408318, 0.04390637, 0.14764480, -0.35036820, -0.14012778},
  {0.03830902, 0.12428658, -0.06850791, -0.00500492, -0.20730689, -0.07399262, -0.02352267, 0.17388315, -0.15909903, -0.23469391},
  {0.05927420, -0.66798073, 0.20447478, 0.08171724, -0.01272092, -0.00216613, -0.07752649, -0.09769516, -0.08330885, -0.11258639},
  {0.09287696, -0.60703969, 0.09810253, 0.21507719, -0.08704507, 0.00929243, -0.12860011, -0.07341716, -0.12795496, -0.06430615},
  {0.12151628, 0.39527744, 0.08718531, -0.25924841, 0.18630213, 0.26964939, -0.04682346, -0.02099961, -0.36367035, -0.17718138},
  {0.04293599, 0.00353884, 0.15574956, 0.07791493, -0.12089357, -0.33930254, -0.15070233, 0.12784347, -0.26941815, -0.33519483},
  {0.05311619, -0.50371224, 0.10516392, 0.03908012, 0.01206576, 0.08111592, -0.01239054, -0.15259893, -0.02027662, -0.11750860},
  {-0.03218124, -0.33802348, 0.20987441, 0.09472978, -0.00613796, 0.08045039, 0.01496822, -0.27604493, -0.13777485, 0.03878525},
  {-0.19784446, 0.32354799, -0.03487605, -0.01462791, 0.15876843, 0.33974680, -0.16196856, -0.05332050, -0.38287503, 0.01183521},
  {0.26834443, -0.40872297, 0.20376723, -0.17526674, -0.24413598, -0.31996626, 0.09993825, 0.20258562, 0.14477292, -0.10035434},
  {0.11781638, -0.02856315, 0.08587249, -0.20015161, 0.00684197, -0.10536344, 0.10524447, -0.06256805, 0.12753624, -0.06933367},
  {0.10178300, -0.12729488, -0.10958290, 0.07608872, -0.03489624, 0.02501302, 0.09369061, -0.24273221, -0.13063474, 0.25594926},
  {-0.27912456, 0.12476555, -0.18303721, 0.09608253, 0.07397476, 0.35664949, -0.30844623, 0.08418316, -0.18803827, 0.02841420},
  {0.15136914, -0.30580768, 0.21420875, -0.51082069, -0.15253268, -0.34361321, 0.13310114, 0.43430877, 0.24426265, -0.37871927},
  {0.17650756, -0.14700188, 0.18273565, -0.22552606, 0.00951448, -0.05359828, 0.15842728, -0.12018343, 0.17577669, -0.05295553},
  {0.02844941, -0.26025087, -0.08822277, 0.06284038, -0.10960092, 0.13113108, 0.21106827, -0.16130547, -0.20215665, 0.24695127},
  {-0.26253611, -0.22290270, -0.20429468, 0.14149305, -0.11319368, 0.42247218, -0.38421327, -0.11461839, -0.22223161, 0.24109803},
  {0.19599111, -0.21165057, 0.35615450, -0.48216888, -0.10861675, -0.42713469, 0.31859696, 0.46852911, 0.36489040, -0.47957489},
  {0.01872382, -0.16487026, 0.37858725, -0.10412665, -0.06037357, -0.10639016, 0.20718330, -0.07060713, 0.26761690, -0.22711532},
  {-0.13625593, -0.21203654, -0.11439257, 0.09414282, 0.07890776, -0.01223196, 0.00955723, -0.25435954, 0.24396634, -0.05128368},
  {-0.38413107, -0.18479915, 0.03977000, 0.37926236, -0.01252668, 0.14471819, -0.42743263, -0.18928863, -0.27310961, 0.38134831},
  {0.42165679, -0.19758970, 0.13509956, -0.53578818, -0.11097220, -0.22849198, 0.19233465, 0.06562866, 0.35263690, -0.30836976},
  {-0.25625259, 0.24578904, 0.12795673, -0.12369981, 0.12183283, -0.07897861, 0.09493342, -0.01038956, 0.06102820, -0.19905917},
  {-0.44669300, 0.02116174, -0.03320365, 0.14302470, 0.13927001, -0.11428360, -0.10121370, -0.11575773, 0.23849729, -0.00746614},
  {-0.23712084, -0.14045221, 0.05665293, 0.41035870, 0.10134795, 0.15449654, -0.22405206, -0.26819363, -0.12907471, 0.18264103},
  {0.09372102, 0.09201109, 0.25205666, -0.43937388, -0.12031380, -0.19341102, 0.01205310, -0.10183624, 0.04930482, 0.02524607},
  {-0.19195011, 0.03087338, -0.01151013, -0.05388209, 0.06920142, -0.12834787, 0.09876674, 0.03189161, -0.05895701, -0.01392809},
  {-0.45144844, -0.13165833, -0.14194600, -0.09204691, 0.06990056, -0.07704226, 0.18712050, -0.03991566, 0.42812678, -0.27071744},
  {-0.04376848, -0.07461064, 0.03137845, 0.19849078, 0.04989192, -0.05219632, 0.05533116, -0.18695819, -0.05593848, -0.17480758},
  {0.06052962, 0.11788830, 0.02830035, -0.35961005, 0.12854879, -0.07791118, 0.09174029, -0.04700558, -0.05044922, 0.07715552},
  {-0.07207443, -0.15553120, -0.04774968, 0.00703346, 0.07952445, -0.06351505, 0.04659781, 0.04797500, 0.01027163, 0.00221710},
  {-0.26482165, -0.47981998, -0.11136626, 0.13180904, 0.12272874, 0.00921832, 0.08794580, -0.03733002, 0.43162856, -0.19994566},
  {0.11178808, -0.31885415, 0.06847442, -0.09769268, 0.06614909, -0.17912427, 0.13499680, 0.16693787, 0.15961669, -0.35031459},
  {0.15254383, -0.25161433, -0.03361884, -0.00706190, 0.07659601, 0.10349292, 0.18020548, 0.09397660, -0.00393425, -0.00414108},
  {0.03152268, -0.05720452, -0.01870439, 0.08280097, 0.03364278, 0.03073118, 0.05827719, 0.10546979, 0.02259196, -0.01646505},
  {-0.04349614, -0.28536698, 0.01738840, -0.01519775, 0.06961814, -0.06631580, 0.03689081, 0.00276135, 0.24144612, -0.38549089},
  {-0.12244562, 0.05403046, 0.31889054, -0.21894245, 0.12647207, -0.26114762, 0.15028727, 0.19036497, -0.11513148, -0.52511263},
  {0.07746696, -0.03712801, -0.24069084, 0.03688702, 0.07098697, 0.05256528, 0.12917958, 0.06426442, -0.10000046, -0.02059917},
  {-0.01324011, -0.08671595, -0.07331369, 0.05095423, -0.04686399, 0.09586982, -0.06028363, 0.02129162, -0.05716272, 0.02224537},
  {0.00858981, -0.11609787, 0.15438297, -0.03597354, 0.03805438, -0.01433948, -0.01298617, -0.16005164, 0.06786327, -0.28142634},
  {-0.05677675, 0.31949303, 0.48519924, -0.53132653, 0.17955646, -0.22854558, 0.09644229, 0.14013548, -0.42272043, -0.23245305},
  {0.02485279, -0.17260367, -0.13523555, 0.05084925, 0.02487787, 0.01549606, -0.09024668, 0.07834506, -0.06295218, -0.04318163},
  {0.07971684, -0.03959882, -0.02196135, 0.02265252, -0.17059051, 0.11424687, -0.04150562, -0.26698059, 0.03816582, -0.14551644},
  {0.01360135, 0.09120382, 0.09527653, -0.01993619, 0.03154401, -0.06589055, 0.03723239, -0.14243725, -0.09619558, -0.31654322},
  {0.03252951, 0.11017494, 0.39894560, -0.35494351, 0.08037334, -0.20242710, 0.05112416, -0.01161581, -0.53170621, -0.28798768},
  {0.04278666, -0.27715114, -0.17747438, 0.11258250, -0.02204260, 0.10490953, 0.01286359, -0.03136537, -0.03058011, -0.03568507},
  {-0.04614351, -0.00751001, 0.11947159, -0.01131950, -0.29095730, -0.05111982, -0.03653104, -0.21215627, 0.07228924, -0.36706138},
  {-0.27940303, -0.28224435, 0.26623350, -0.15430063, -0.22336321, -0.02004924, 0.04431006, -0.20397893, -0.01300283, -0.49091280},
  {0.07339917, 0.36387584, 0.25760296, -0.19782360, -0.01841348, -0.00032312, -0.10004786, 0.06246211, -0.39239648, -0.09275835},
  {-0.02037450, 0.12908775, -0.03298686, -0.00911167, -0.26711839, 0.04388933, -0.02215752, -0.15515588, 0.16548197, -0.32955059},
  {-0.13484605, -0.06859449, 0.04224753, -0.01590444, -0.01051512, -0.02845649, -0.25833061, -0.04428436, -0.41682428, -0.36110500},
  {-0.01523225, -0.05214613, -0.01121114, 0.05361589, -0.09781307, -0.15056100, -0.28306031, -0.14400171, -0.44316512, -0.34971336},
  {0.11591496, 0.36219075, -0.07807105, 0.03499528, 0.14395508, 0.02529545, -0.08064044, 0.05560737, -0.28240967, -0.22968437},
  {0.06278145, 0.08214070, -0.09636170, 0.12751979, -0.33364335, -0.00635271, -0.13636293, 0.23317128, -0.18240491, -0.18032938},
  {-0.07005724, -0.17827842, 0.11921950, 0.12138844, -0.21632674, 0.00537133, -0.11551445, -0.04942621, -0.08715834, -0.24791710},
  {-0.00516049, -0.56407678, -0.06710715, 0.15109076, -0.12159931, 0.16281082, -0.10870115, -0.01457000, -0.00280650, -0.26048014},
  {-0.08804578, 0.23752505, 0.02053412, 0.01955701, 0.07510763, 0.32001799, -0.07969962, 0.12878227, -0.29899088, -0.21326122},
  {-0.09391697, 0.05032113, 0.20851022, -0.07275953, -0.07808734, -0.12093640, -0.06807552, -0.06900943, -0.33671561, -0.43524507},
  {-0.02269997, 0.00328240, -0.00008214, 0.05643552, -0.08911678, 0.00445698, -0.11385734, -0.22153041, 0.01846109, 0.03611494},
  {0.03756091, -0.37577954, 0.02911599, 0.15587164, -0.09460641, 0.22766021, -0.11821557, -0.23534158, -0.10700638, -0.06764407},
  {-0.19566444, 0.29408672, -0.18271409, 0.09103183, 0.05073341, 0.34239560, -0.05983172, -0.02973011, -0.42062595, 0.03590085},
  {0.04814237, -0.56105936, 0.17429213, -0.26033944, 0.02436430, -0.00627159, -0.20600170, 0.06621475, 0.36978242, -0.04074622},
  {-0.03093451, -0.07275034, 0.08023153, -0.01388887, -0.02026606, 0.05421882, -0.06643052, -0.11011723, -0.00354783, -0.01405059},
  {-0.00461617, 0.04023729, 0.05987937, 0.13774718, -0.00826229, 0.15926388, -0.01811739, -0.29267642, -0.11011188, 0.17838475},
  {-0.22169025, 0.19387910, -0.12153378, 0.04079319, 0.06925317, 0.35586250, -0.21921989, 0.04793740, -0.47548550, 0.14816362},
  {0.18888684, -0.14468236, 0.23637196, -0.37341410, 0.01232690, -0.36225265, 0.06303052, -0.17774257, 0.38131925, -0.23545539},
  {0.13450807, -0.09439244, 0.14980729, -0.00798325, -0.11032976, -0.01960074, 0.13131043, -0.18184641, 0.03026593, -0.06276177},
  {0.10778582, -0.28871489, -0.03642014, 0.05893437, -0.13224748, -0.06134102, -0.01072473, -0.21957123, 0.07540700, 0.12941769},
  {0.04954713, -0.12475906, -0.11914599, 0.15094443, 0.02573729, 0.26125598, -0.16788535, -0.11147895, -0.34532139, 0.45256975},
  {0.13728698, -0.16608356, 0.13314925, -0.42679706, -0.15950292, -0.36192200, 0.04053614, 0.15872680, 0.40690607, -0.50819510},
  {0.12623985, -0.07207666, 0.14135660, -0.11089952, -0.03049599, 0.06252692, 0.19588552, -0.05102779, -0.03362191, -0.23808460},
  {-0.07139479, -0.27333155, -0.02052914, 0.06752320, -0.04370089, -0.14736526, 0.14648464, -0.17253251, 0.19562489, -0.02124263},
  {-0.09700868, -0.17253453, -0.06263761, 0.16949171, -0.12005460, 0.15925001, -0.09474267, -0.31894031, -0.26549041, 0.25064242},
  {0.07808246, -0.06053634, 0.04360906, -0.50623351, 0.05487186, -0.31296152, 0.07517162, -0.00499539, 0.24433939, -0.05464038},
  {-0.11605965, 0.13975275, 0.10009662, -0.09818450, -0.01263550, 0.01643604, 0.11266851, -0.00879601, -0.10601110, -0.11233376},
  {-0.20693651, -0.07432864, -0.08370303, -0.03854625, -0.04488623, -0.18036105, 0.15232924, -0.01004746, 0.27984774, -0.19162531},
  {0.18990979, -0.15525417, 0.07010479, 0.32972100, -0.07033743, 0.04247801, -0.10177239, -0.26589406, -0.26108611, 0.05849320},
  {0.00629297, -0.10867418, 0.02028079, -0.44473436, 0.06419378, -0.19255431, -0.09180960, 0.17100054, -0.01368506, 0.05814061},
  {-0.10605731, 0.02382819, 0.17141971, 0.01733238, 0.01932832, -0.10825914, -0.02017501, 0.02875200, -0.15872258, -0.11276375},
  {-0.24511890, -0.06658328, 0.13644329, -0.02009036, 0.09660710, -0.24926080, 0.01509992, -0.03756459, 0.32849395, -0.18272142},
  {0.18048088, -0.21458155, 0.15676792, 0.28498107, -0.13357192, -0.01554970, 0.17283908, -0.21350643, -0.09429586, -0.28804514},
  {0.01255119, -0.16104975, -0.01668374, -0.02712515, 0.11571273, -0.03554764, 0.10856870, -0.03770784, 0.06359047, 0.10587753},
  {-0.06068593, 0.04812726, 0.06075107, 0.02105299, 0.02077962, 0.04217134, 0.05745735, 0.03557810, 0.05777121, -0.12454643},
  {-0.09216914, -0.05220486, 0.11150961, -0.09461578, 0.07969986, -0.26008892, 0.06705587, -0.11211259, 0.10755927, -0.31989533},
  {0.05686503, -0.13176824, 0.26403400, -0.09674421, -0.02902714, -0.11704851, 0.17539351, 0.02428941, -0.20796104, -0.38790324},
  {0.04947238, -0.12120667, -0.08997089, 0.12291105, 0.07522242, 0.05270318, 0.06481277, -0.13742931, 0.05232156, -0.11077734},
  {0.02191923, 0.10909387, -0.03884880, 0.07466808, 0.01492355, -0.06133781, 0.00654464, 0.06303173, -0.01157975, -0.04659432},
  {-0.11856145, 0.08507325, 0.12477709, -0.21012616, 0.11420050, -0.13640201, 0.05776523, -0.05624423, 0.00136141, -0.11821217},
  {0.03978412, 0.19238251, 0.34550455, -0.21857053, 0.09495795, -0.11157229, 0.05640216, 0.02779162, -0.37441760, -0.30536720},
  {-0.12285751, 0.04590832, -0.20035073, 0.07785415, -0.11543835, 0.01387910, -0.05031292, -0.05700682, 0.13226976, -0.12939559},
  {-0.05450290, -0.08729512, -0.02505020, 0.07681572, -0.08541083, 0.00921092, 0.04346350, -0.07248570, 0.03116363, -0.08829833},
  {-0.01306626, 0.18878323, 0.23968029, -0.28443334, -0.01449410, 0.00782987, -0.05036897, -0.09969196, 0.01199559, -0.29476100},
  {0.00660857, 0.16287789, 0.39007020, -0.31529647, 0.04032610, -0.22555161, -0.01952931, 0.02743454, -0.28182060, -0.21616673},
  {-0.00685273, 0.07576215, -0.12002497, 0.12626222, -0.02772620, -0.00630662, -0.04083961, 0.03100427, 0.05929005, -0.00636350},
  {0.07228017, 0.01568213, -0.04941261, 0.05603186, -0.26549783, 0.04765526, -0.07284202, -0.34421122, 0.16681090, -0.11783355},
  {-0.11700640, -0.04859759, 0.18732917, -0.20454630, -0.04492956, 0.07630588, -0.04582126, -0.24537683, -0.00901888, -0.16185130},
  {0.00996868, 0.26889774, 0.26284319, -0.14904562, 0.01745485, -0.16256793, -0.05939479, -0.03287982, -0.29454082, -0.19875810},
  {0.02645019, -0.20678245, -0.11629733, 0.03225352, -0.01849180, 0.00972310, 0.09085657, -0.30221173, 0.19647187, -0.15874541},
  {-0.17303111, 0.13407207, -0.02292921, -0.08218487, -0.20359835, 0.09846253, -0.13311160, -0.20395453, -0.08619576, -0.01145445},
  {-0.09012911, 0.03951199, 0.05836089, -0.26214886, -0.23734722, -0.00390385, 0.07131572, -0.11204043, -0.10998072, -0.17358524},
  {-0.02793620, 0.32243845, 0.11311262, -0.19843692, 0.08227549, 0.08498966, 0.06304321, 0.06094579, -0.23372349, -0.09369507},
  {-0.09082178, 0.13544260, -0.02037511, -0.15456744, -0.32516983, 0.11903153, -0.02011361, -0.11807653, -0.01159339, -0.12584780},
  {-0.01180938, 0.02492924, 0.25749752, 0.08929021, -0.07293841, -0.22482191, -0.25213549, -0.34390691, -0.33025733, -0.30446562},
  {-0.08998196, -0.09453462, 0.09664033, 0.02057730, -0.11918996, 0.06748357, -0.19562152, -0.44552246, -0.37695765, -0.36304793},
  {0.13503328, 0.38996485, 0.11766566, -0.03240692, 0.02795427, 0.11561534, -0.11374750, 0.12523910, -0.26994517, -0.04929164},
  {0.13271017, 0.20185821, -0.04439577, -0.05666233, -0.20694217, 0.04227920, -0.13327880, -0.03752246, -0.09938464, 0.04064176},
  {-0.13501182, 0.15245007, -0.02090432, 0.11188930, -0.25062484, -0.05726169, -0.21570314, -0.18425505, -0.00401249, -0.09167894},
  {-0.10123405, 0.25900429, -0.04600091, 0.08841021, -0.05785886, -0.04264149, -0.31861362, -0.23948342, -0.14327343, -0.12671275},
  {0.08077981, 0.19579141, 0.00085959, -0.01226628, 0.09039608, 0.11688703, -0.04541567, 0.05449026, -0.33517784, -0.00791925},
  {-0.01254157, 0.15656210, 0.20651378, -0.23747762, -0.17480949, -0.06301308, -0.24681467, -0.31030795, -0.38213542, -0.07011855},
  {-0.11176693, 0.05555936, 0.06004038, 0.08873727, -0.18842207, 0.08227483, -0.29980198, -0.10830781, 0.03069399, -0.02752041},
  {0.09393276, 0.05240002, -0.11063979, 0.19489576, -0.08873518, 0.06660242, -0.13757190, -0.44143039, -0.00156287, 0.03939002},
  {-0.07105314, 0.16282205, -0.14510284, 0.05680597, -0.01225019, 0.09603308, -0.00232477, -0.16091216, -0.22545077, 0.06921226},
  {-0.00300506, 0.34219462, 0.33461466, -0.32136491, 0.05929009, 0.08535273, -0.30350822, -0.28663850, -0.00445621, -0.34058547},
  {-0.12783480, -0.03194679, 0.05489559, 0.11498976, -0.00297291, 0.09763613, -0.09823465, -0.09234457, -0.09580955, 0.08024464},
  {-0.02419045, 0.02861847, -0.07878664, 0.04260927, -0.22653450, 0.14187628, -0.13088642, -0.46759218, 0.02441441, 0.04094353},
  {-0.13160233, 0.09717055, -0.20614411, 0.10526392, -0.14290653, 0.12133930, -0.07507446, -0.25776973, -0.18693633, 0.07429418},
  {0.02751184, 0.19662681, 0.09126122, -0.30041423, 0.08264644, -0.12382915, -0.30219671, -0.01679680, 0.08272407, -0.44092980},
  {-0.06489017, -0.00167938, 0.06705429, 0.00412447, -0.05144155, 0.15845260, -0.01767386, -0.15229568, -0.20255406, 0.01820945},
  {0.01260308, -0.00996799, 0.09522133, 0.08221525, -0.16583005, 0.09879328, 0.01051590, -0.33967683, 0.01773240, -0.00920718},
  {-0.05570570, -0.06127128, -0.08315254, 0.12294106, -0.26931357, 0.08426670, 0.01058266, -0.33924070, -0.11851425, 0.12090153},
  {0.16951069, 0.16835146, 0.02094191, -0.44364858, 0.11743245, -0.16398057, -0.06950494, 0.13182309, 0.03602896, -0.10389599},
  {0.07247715, -0.15513077, -0.01009625, -0.01772287, -0.10942684, 0.13023891, 0.15605201, -0.07814404, -0.21892886, -0.02888891},
  {0.17783171, -0.05219711, -0.06286255, -0.09971293, -0.33620393, 0.07939605, 0.20613870, -0.18391410, 0.05702109, -0.19431414},
  {0.13103700, -0.18438977, -0.00344709, 0.11571693, -0.33385816, 0.18918787, 0.11802250, -0.44850498, 0.04945650, 0.02533923},
  {0.00249710, 0.01021242, -0.16953380, -0.41024244, 0.25731894, -0.20379508, -0.19710095, 0.14785010, 0.09530389, -0.11256092},
  {-0.01116106, -0.03367975, 0.02926571, 0.02995862, -0.15614064, 0.09281424, 0.06093230, -0.00506006, -0.08848903, -0.00055286},
  {0.10932618, -0.06428465, 0.00468167, -0.08453818, -0.23804809, 0.01723324, 0.20412034, -0.04058659, -0.00756369, -0.19438608},
  {0.16286655, -0.30294144, -0.04221933, 0.17248893, -0.25368467, 0.05980637, 0.15404131, -0.41791737, 0.14562108, -0.39048213},
  {-0.22028509, -0.10190432, -0.11329542, -0.12925351, 0.13317716, -0.04386477, -0.13702454, 0.08108539, 0.11808690, 0.04970327},
  {-0.04250575, 0.05398666, -0.01173588, 0.03209248, -0.08826260, 0.05356521, 0.09047613, 0.02365513, -0.14806432, 0.00120224},
  {-0.07944661, 0.02614271, 0.15956824, -0.06003407, 0.07004274, -0.05192341, 0.07908135, -0.07073306, -0.02039720, -0.22124638},
  {0.04203262, -0.08942930, 0.22344781, 0.16217318, -0.15599896, 0.03886038, 0.17931612, -0.43949363, 0.11337668, -0.29904017},
  {-0.24778844, 0.00340824, -0.19235900, -0.04731211, 0.10011987, -0.03582560, -0.01862703, -0.00157295, 0.11657055, -0.02924887},
  {-0.15778621, 0.12819342, 0.06610564, -0.03082730, -0.04823535, -0.01959504, 0.12689652, 0.00777709, -0.00290610, -0.17363928},
  {-0.10225114, 0.16664083, 0.27684334, -0.06523842, -0.05027115, -0.09932505, 0.11641347, -0.06454676, 0.07939562, -0.15031873},
  {0.04884320, 0.22271153, 0.27933562, -0.15794396, -0.13758664, -0.10016398, 0.14940447, -0.44323269, -0.13749677, -0.22727077},
  {-0.07219201, -0.03311698, -0.09418778, 0.06479480, 0.07701522, 0.07797160, -0.07447494, -0.02170279, 0.05849389, 0.02067418},
  {-0.07152015, 0.00596298, 0.20695993, 0.08751529, 0.03272441, 0.06352838, -0.01824198, -0.14481966, 0.03918220, -0.18416297},
  {-0.12953493, 0.18510698, 0.26339096, -0.22185838, 0.09355102, -0.15104686, -0.04931013, -0.28262526, -0.03709408, 0.02093076},
  {0.04631049, 0.10445481, 0.36854166, -0.10999198, -0.03722118, 0.00842414, -0.01470635, -0.21457425, -0.17257433, -0.18748192},
  {-0.08312388, 0.08489120, -0.00856314, 0.07048600, -0.08563323, 0.16710936, 0.08755805, -0.01554062, -0.02737709, -0.07857816},
  {-0.08721893, 0.05155644, 0.08199224, -0.06607582, -0.10045934, 0.15738499, -0.01855444, -0.32840785, -0.01332800, -0.07593967},
  {-0.08259857, 0.04930377, 0.11771310, -0.12194232, 0.05967818, 0.06096587, 0.05172255, -0.17834376, -0.07044800, -0.11180570},
  {-0.04492117, 0.06581842, 0.20241453, -0.14995244, -0.06601714, -0.01777215, -0.02441292, 0.06639283, -0.22321747, -0.27691039},
  {-0.03872785, 0.14350763, -0.07212485, -0.01576015, -0.05458518, 0.09062279, 0.02051181, -0.11428112, 0.14703080, -0.09993467},
  {-0.11026201, -0.08491416, 0.05568960, -0.05485225, -0.17448042, 0.14576891, -0.14545682, -0.47080719, 0.09442588, -0.08092199},
  {-0.24133496, 0.05072937, 0.07165599, -0.14394058, -0.16400875, 0.08401740, 0.00996700, -0.34069982, -0.08720006, 0.05369845},
  {-0.07765663, 0.24777994, 0.17687891, -0.30069149, -0.09347557, 0.08109663, -0.06174497, 0.04064237, -0.30681956, -0.02219390},
  {-0.11064447, -0.10170020, 0.02319172, 0.01318840, 0.00927253, 0.07498657, -0.04715160, -0.34017822, 0.05500730, 0.06981416},
  {-0.22710912, 0.15639180, 0.08803530, -0.16628629, -0.26954627, 0.09582341, -0.24728911, -0.15575182, -0.15849237, 0.09453852},
  {-0.12200254, 0.11004708, 0.00534027, -0.07080457, -0.29958206, -0.06875651, -0.07307774, -0.23000355, -0.21886395, 0.13624689},
  {-0.01400994, 0.37414095, 0.09012105, -0.13382636, -0.06059640, -0.01553611, -0.08256664, 0.05507627, -0.28577963, 0.06231669},
  {-0.20625532, 0.15783948, 0.05029686, -0.10379583, -0.27732727, 0.13169365, -0.18687733, -0.18156393, -0.33799914, 0.20918648},
  {-0.06964120, -0.07240468, 0.13862762, 0.20307219, -0.19420055, -0.00956919, -0.14856032, -0.20407462, -0.16262765, -0.04156802},
  {-0.22508676, -0.22703579, -0.06226852, 0.10101506, -0.22526753, 0.01003792, -0.02906365, -0.28551540, -0.24663655, -0.17650880},
  {0.04990941, 0.38889381, -0.00984498, -0.07443170, 0.07867575, 0.10067655, -0.02665182, 0.08794351, -0.30701235, -0.14030258},
  {0.04713042, 0.17933613, 0.02437054, 0.13566121, -0.05602464, -0.01828373, -0.04359730, 0.02003292, -0.15502436, -0.03711000},
  {-0.12620379, 0.23167127, -0.20426284, 0.03998172, -0.36009616, 0.09799490, -0.35541147, 0.06510566, -0.14623135, -0.05690226},
  {-0.25223264, 0.15761523, -0.03501881, 0.08476302, -0.48487395, 0.04319004, -0.40704539, -0.08261051, -0.02721583, -0.04321042},
  {-0.03003998, 0.36707655, 0.01324567, -0.10528515, -0.03365126, 0.03789649, -0.16896670, -0.00928858, -0.19688544, -0.07928037},
  {-0.19584455, 0.00575126, 0.07441121, -0.00633766, -0.13510519, -0.01292702, -0.02549673, -0.28239039, -0.18290208, -0.04795898},
  {-0.10278820, 0.08806914, 0.03886940, 0.05589503, -0.09266987, -0.12687044, -0.51442301, 0.06211230, -0.02170688, -0.05292526},
  {0.09409919, 0.13573450, -0.02171250, 0.08403673, -0.16384834, -0.02846748, -0.64555830, -0.03600543, 0.02809683, -0.05445115},
  {0.01474417, 0.15797736, -0.00980641, 0.09005347, -0.01355075, 0.06258235, -0.17953631, 0.07702311, -0.14073166, -0.08833364},
  {-0.23910470, 0.28797078, -0.04976766, -0.07227961, -0.17931141, -0.07017662, -0.58989400, 0.22823299, -0.28263509, -0.06828011},
  {0.05633187, 0.02215447, -0.00751073, 0.05797174, -0.22623923, 0.07833624, -0.10405644, -0.09491196, -0.01000330, 0.02508732},
  {0.07199042, 0.05183071, 0.12172630, -0.00471299, -0.11108394, 0.08686782, -0.22180697, -0.13579392, -0.03144874, -0.09801503},
  {0.09687421, 0.12545244, -0.00248582, 0.04179299, -0.13141343, 0.15602972, -0.15971375, -0.16213170, -0.03816246, -0.14479901},
  {-0.05356243, 0.14577937, 0.00026274, -0.07290920, 0.22115371, -0.24393739, -0.30119330, 0.33257779, -0.24269912, 0.07875504},
  {0.06748137, -0.01480374, 0.07897258, 0.07279113, -0.10710250, 0.19930272, -0.09309841, -0.15194616, -0.12515943, -0.02454638},
  {0.05846320, -0.05478671, 0.04680648, 0.14222631, -0.13442539, 0.05356832, 0.12261468, -0.28224856, 0.06827447, -0.03979109},
  {0.15005316, 0.04574114, 0.09058731, 0.13003057, -0.29044208, 0.08388257, -0.01711967, -0.27967629, 0.02382492, -0.07950741},
  {0.01909404, 0.18550758, -0.21873878, -0.10033421, 0.07305202, -0.11840471, 0.00859675, 0.22764324, -0.23781392, 0.10107002},
  {0.07848611, -0.03730514, -0.04705582, 0.08561677, -0.23237196, 0.12168419, 0.08130764, -0.15427858, -0.01265547, -0.04489570},
  {0.17829156, -0.17949888, 0.03814717, -0.00461097, -0.22771442, 0.07584941, 0.07226439, -0.21304834, 0.09063900, -0.02789807},
  {0.24794436, -0.10349951, 0.06282334, 0.11695977, -0.20139311, 0.15727162, -0.01879026, -0.39801484, 0.13804491, -0.16550672},
  {-0.13872015, -0.03102830, -0.28885537, 0.02395272, 0.18265669, -0.07365224, -0.05757992, 0.16779695, -0.21944097, 0.12898409},
  {0.09226355, 0.00412222, -0.00797717, 0.00678606, -0.09156657, -0.01017651, -0.02203790, -0.01393609, 0.06038668, -0.09920287},
  {0.14096688, -0.17812976, 0.01603632, -0.08842031, -0.15276141, -0.02501482, 0.16552117, -0.19428617, 0.11420510, -0.16057068},
  {0.33747208, -0.07738855, -0.00940012, 0.01801179, -0.17029120, 0.02825624, 0.10995790, -0.27760530, 0.10276688, -0.22767262},
  {-0.12118632, 0.07180671, -0.33641168, 0.10909665, 0.06834022, 0.09811879, -0.12746319, 0.11803579, 0.00379754, 0.00707608},
  {-0.07937398, 0.07155789, -0.08449978, 0.07387800, -0.11502969, 0.11496202, 0.08464492, -0.01007075, -0.01008288, -0.03532768},
  {0.13600747, -0.04583699, -0.00922937, -0.07551166, -0.22306246, -0.07962760, 0.03886373, -0.16454378, 0.00532512, -0.03638175},
  {0.20508598, 0.00479539, 0.03137698, -0.00258498, -0.18518484, -0.03422176, -0.02358767, -0.26400760, 0.02821470, -0.25561544},
  {-0.26861554, 0.00513565, -0.27833793, -0.02962808, 0.14017442, 0.02699663, -0.04150587, 0.03637138, 0.12237282, -0.08995520},
  {0.00777768, 0.10370647, 0.12242355, 0.04190569, -0.03463969, 0.00426305, -0.02006270, -0.01891503, 0.01794351, -0.00823045},
  {0.05356179, 0.02448296, 0.19441228, 0.00075026, -0.03630415, -0.05620437, 0.13953243, -0.13452294, 0.03295801, -0.03520367},
  {0.05347088, 0.19678581, 0.18374209, 0.04765303, -0.00556229, -0.08149277, 0.02590992, -0.26620087, -0.00900527, -0.10551313},
  {-0.12381519, -0.04326751, -0.07131106, -0.05067566, 0.12431258, 0.08233808, -0.04008318, 0.01431976, 0.05561681, -0.00019171},
  {-0.18441269, -0.01712158, 0.02804443, 0.01836457, -0.02489636, -0.02743613, 0.02339634, -0.05855686, 0.00759550, 0.05742547},
  {-0.04544537, 0.10072416, 0.06558053, 0.01436888, 0.03022800, -0.04350354, 0.13695154, -0.37647411, -0.01374802, -0.00026919},
  {-0.06101034, 0.19956686, 0.27976158, -0.09159423, 0.10156764, 0.02056209, 0.13154532, -0.29345688, 0.03034010, -0.12834218},
  {-0.17628935, 0.05899324, 0.13406426, 0.03820490, 0.14001113, 0.02373981, -0.02256797, -0.07661466, 0.04261118, -0.02147741},
  {-0.15947777, -0.09023063, 0.04225851, 0.10436784, -0.11891215, 0.06425633, -0.09605873, -0.21244395, -0.01570736, 0.04287726},
  {-0.09501537, 0.00469975, 0.10773901, -0.03557703, 0.16491827, -0.06745446, -0.07544415, -0.37296963, 0.07911842, -0.04230291},
  {0.07484015, 0.17089282, 0.11611890, -0.07769818, 0.07399192, -0.09632948, 0.02094591, -0.17627145, -0.16824827, -0.09548771},
  {-0.19803339, 0.07738417, -0.02650066, -0.07522374, 0.08177654, 0.04447069, 0.00388846, -0.10268439, 0.04056107, 0.07428446},
  {-0.09059886, -0.24093930, 0.10654053, 0.02053248, 0.07944663, 0.07072404, -0.34550363, -0.37030113, 0.04022512, 0.07982055},
  {-0.05836707, -0.27649677, 0.04604825, -0.04176010, -0.02739096, 0.03127768, -0.26099032, -0.62078452, -0.05368939, 0.19492297},
  {-0.05120698, 0.13405325, 0.03905690, -0.07159526, 0.13027197, 0.05461019, -0.12545167, -0.08137860, -0.27218890, 0.12087137},
  {-0.09525508, -0.38671705, 0.05841115, -0.06685778, 0.05670888, 0.00317769, -0.23947573, -0.21611643, 0.09524171, 0.01834735},
  {-0.16210146, -0.04403841, 0.08601175, -0.10491769, -0.04312482, 0.08725093, -0.33345821, -0.12982954, -0.39844957, 0.02111416},
  {-0.14648487, 0.00560657, 0.13737895, -0.09565543, 0.00544048, 0.11497007, -0.20903446, -0.15756409, -0.29070354, 0.04543152},
  {0.06924433, 0.39507723, -0.08591329, -0.16430891, -0.03002998, 0.11487814, -0.12024333, 0.19335896, -0.40573138, 0.04363655},
  {-0.21161546, -0.01411239, 0.20588689, -0.24947964, -0.09470868, 0.12618195, -0.39540377, -0.32082573, -0.40517607, 0.14226800},
  {-0.03944653, -0.10055594, -0.29052714, 0.03883454, 0.01183203, 0.03221817, 0.07740237, 0.05907633, -0.14319754, -0.19503702},
  {0.03396503, -0.07650007, -0.13904326, -0.11988997, -0.06423628, 0.12291534, 0.07833709, -0.03919409, -0.16374998, -0.19161038},
  {0.12531281, 0.39479551, -0.18453811, -0.05895043, 0.04405762, 0.17822014, 0.05717440, 0.18528491, -0.24186628, -0.13048050},
  {-0.04710324, 0.03623564, -0.00829114, -0.01108929, -0.09834608, -0.06717747, 0.00573679, 0.04492677, -0.00299345, 0.00107984},
  {-0.11179287, -0.32845768, -0.39898977, 0.09135507, -0.01005425, -0.05545170, -0.13065509, 0.04623870, -0.37557006, 0.13619252},
  {-0.07683983, -0.39621550, -0.38238001, 0.18458650, -0.00225908, 0.02869739, -0.12424295, 0.09635690, -0.39503226, 0.23269631},
  {-0.01161383, 0.14804451, -0.14802814, 0.01347539, 0.03305028, 0.04226075, 0.02341108, 0.17383847, -0.41137260, -0.03564668},
  {-0.30599618, -0.12462846, -0.35356650, 0.20437178, -0.03946007, -0.04723774, -0.01592761, 0.27315968, -0.14659797, -0.17297865},
  {-0.30205369, -0.40211138, -0.32707751, 0.22918646, -0.01694881, -0.07322223, -0.31401494, 0.01761961, -0.16264521, 0.17865197},
  {-0.26711145, -0.22075099, -0.33137435, 0.15835755, -0.07112846, -0.08497135, -0.24035598, 0.10562807, 0.00480687, 0.21404195},
  {-0.11383124, 0.11473149, -0.24958152, 0.10437660, 0.06654894, 0.03447470, -0.11086339, 0.02448903, -0.28391990, 0.09401804},
  {-0.13582715, -0.08569070, -0.54848439, 0.11837369, 0.01945614, -0.24550703, -0.27528411, 0.21413001, -0.37868428, 0.28871775},
  {-0.31359780, -0.17055054, -0.26822907, 0.28768668, -0.26399660, 0.03955281, -0.45407248, -0.03947828, -0.09092863, 0.16220106},
  {-0.13232931, -0.18114094, -0.15768692, 0.15175594, -0.15237901, 0.01795480, -0.51434720, 0.01842063, 0.00880094, -0.04763991},
  {-0.17654544, 0.01255784, -0.20704547, 0.18021528, 0.05962709, 0.09752031, -0.17957859, 0.04155352, -0.07097667, 0.06222251},
  {-0.14598614, -0.27616495, -0.36019278, -0.02636224, 0.03785961, -0.22664146, -0.47033605, 0.15906720, -0.28903410, 0.25157085},
  {-0.15520865, -0.24834001, -0.23200323, 0.29107195, -0.21355820, 0.02279230, -0.48474288, -0.05264525, 0.10046239, 0.05690820},
  {-0.11612994, -0.16294065, -0.00468773, 0.10905740, -0.06064656, 0.11381976, -0.74988520, -0.12230060, 0.04619442, -0.01270024},
  {-0.13441277, -0.04668038, -0.14175139, 0.15830490, 0.02459108, 0.11779416, -0.31773397, -0.01724075, 0.08724492, 0.05409120},
  {-0.25728574, 0.05013532, -0.33958766, 0.02593042, 0.08424282, -0.01945231, -0.61089605, 0.04557081, -0.18121448, 0.22773904},
  {-0.23903541, -0.13884085, 0.00114753, 0.20523208, -0.32271448, 0.04062654, -0.29223889, -0.04823345, -0.01207063, 0.00659824},
  {-0.14329921, -0.10584783, 0.11925988, 0.06443325, -0.13959114, 0.13963081, -0.28577527, -0.14347185, 0.09806277, -0.01008817},
  {0.05156360, 0.04209684, 0.02781876, 0.14150257, 0.01606359, 0.18533452, -0.18180761, -0.00604559, 0.02416217, -0.01988310},
  {-0.25854796, -0.15483238, -0.26884344, -0.04777977, 0.02661371, -0.03093440, -0.43727469, 0.18904854, -0.04519844, 0.23118223},
  {-0.11731037, -0.12692566, 0.15849309, 0.15184766, -0.23356888, 0.12752496, -0.09384692, -0.05631884, 0.09214946, 0.02945957},
  {0.05009793, 0.00819446, 0.10883084, 0.04620144, 0.01810960, 0.08291573, -0.16260032, -0.07760368, 0.10415399, -0.10359126},
  {0.07189313, 0.03254526, 0.01036040, 0.14436047, -0.02889661, 0.21257040, -0.10588815, -0.04650909, 0.08064830, -0.05905013},
  {-0.22928227, 0.05356874, -0.31596255, 0.09375724, 0.03684215, 0.00797158, -0.22680125, 0.06749973, -0.18523839, 0.05907517},
  {-0.17548543, -0.19098975, -0.06198198, -0.08369490, -0.14158545, 0.03408732, -0.10229804, 0.08312931, 0.05534778, 0.12148882},
  {-0.03040767, -0.15065254, 0.07762625, -0.02469783, -0.04004390, 0.07863923, 0.01267772, -0.05534688, 0.00763884, -0.02235473},
  {0.03930251, 0.06738691, 0.04987849, 0.10399374, -0.03168950, 0.12690961, -0.02888663, -0.06779370, -0.02226573, -0.00014782},
  {-0.29671577, -0.09176272, -0.30846819, -0.09717399, -0.00517650, -0.04527793, -0.02852582, 0.08217568, -0.13517611, 0.09101401},
  {-0.15022440, -0.12599593, 0.03582837, -0.02204627, -0.10088108, -0.07773837, -0.05349877, 0.08741417, -0.00776826, 0.09527662},
  {-0.02324295, -0.08246920, 0.01792982, 0.04966136, 0.08577449, 0.05151410, 0.06953707, -0.11786657, -0.00891861, 0.02821313},
  {-0.11499131, 0.12731852, 0.04355364, -0.03532673, -0.04486758, 0.05004317, -0.04727573, -0.08095393, -0.06109632, -0.11401188},
  {-0.29663777, -0.27025869, -0.11601132, 0.06213839, -0.04983694, -0.00001155, -0.05018309, -0.01323908, -0.06558850, 0.06118380},
  {-0.35773420, -0.03251556, -0.06409129, 0.03734173, -0.17631486, 0.09208807, -0.13544682, 0.05027696, -0.01244163, 0.03468933},
  {-0.30445716, -0.06051132, -0.03618096, -0.09158821, -0.02116549, -0.06219760, -0.23189801, -0.16095801, 0.18468584, 0.01948158},
  {-0.24268036, 0.20512637, -0.10934719, -0.05293322, 0.09879784, 0.17233524, 0.03402707, -0.09879679, -0.10076955, 0.04421804},
  {-0.32610619, 0.10982557, -0.07010597, -0.05957689, -0.01186033, 0.03157336, -0.10597840, 0.02344603, -0.00747303, 0.07461971},
  {-0.38523281, -0.09893031, -0.10628035, -0.12158038, -0.06050570, 0.13888197, -0.26995617, -0.05831351, -0.11670150, 0.23047702},
  {-0.36635467, -0.14095917, -0.01947282, -0.09181865, 0.01460041, -0.04222063, -0.31200340, -0.16156991, 0.06793180, 0.07802186},
  {-0.17549896, 0.34265801, -0.06281298, -0.19267306, 0.01045199, 0.24037598, 0.01644335, -0.05543929, -0.16179982, 0.08918405},
  {-0.48165929, -0.07353083, -0.13042201, -0.10676023, -0.01884677, -0.05908609, -0.33883250, -0.03362254, -0.10052222, 0.22585917},
  {-0.29699916, -0.25707984, -0.00596874, -0.14879593, -0.04892024, 0.23403615, -0.30258378, -0.03381658, -0.22252682, -0.05920639},
  {-0.33477300, -0.36646190, 0.14529547, -0.02410732, 0.10100165, 0.17623895, -0.21095611, -0.16710265, -0.10518453, 0.05010243},
  {0.05306579, 0.26960480, -0.06952921, -0.17940243, 0.08184337, 0.10860228, -0.08540419, 0.00863579, -0.25514755, 0.03475033},
  {-0.45032698, -0.26121807, 0.05892285, -0.08884031, 0.04505941, 0.09932770, -0.33632505, 0.00109151, -0.22808801, -0.01310382},
  {-0.07362782, -0.16328909, 0.26710999, -0.28879115, -0.24037988, 0.04969782, -0.07270687, -0.29355121, -0.29774708, -0.01503448},
  {0.00754722, -0.06475960, 0.23622818, -0.11803989, -0.19870703, -0.04662623, -0.10472099, -0.07735944, -0.19121857, -0.16246961},
  {0.01568144, 0.35313055, -0.04076110, -0.08904036, -0.01166210, 0.06016389, 0.01326686, 0.09056690, -0.35459921, -0.08652930},
  {-0.11263429, -0.02558657, 0.22748704, -0.22973792, -0.24286865, -0.01081041, -0.05638804, -0.19923989, -0.31525800, -0.13878161}
};

float dense_bias[OUTPUT_SIZE] = {0.07293475, 0.30916682, -0.04304972, -0.13298583, 0.03593308, 0.09976709, 0.00491451, 0.12587775, -0.28073230, -0.04963328};

#endif